tree
version=v4
num_class=1
num_tree_per_iteration=1
label_index=0
max_feature_idx=6
objective=binary sigmoid:1
feature_names=Column_0 Column_1 Column_2 Column_3 Column_4 Column_5 Column_6
feature_infos=[0.02:11989.6] [0:5] [0.023:34.902000000000001] [0:34] [0.017000000000000001:59.899999999999999] [0.25879999999999997:0.99650000000000005] [0.28599999999999998:119.989]
tree_sizes=1355 1375 1366 1472 1481 1478 1381 1377 1376 1580 1272 1378 1476 1276 1264 1268 1369 1180 1171 1377 1169 1476 1060 1377 1172 1376 1276 1269 1062 1275 969 973 977 1274 1171 1274 1373 1271 872 975 1281 973 1264 1273 1282 1481 774 773 972 1486 778 976 776 1176 1386 1286 877 773 1281 776 1392 978 1074 771 1075 1476 1192 776 975 1180 1388 1289 1271 768 1075 770 880 1287 777 1287

Tree=0
num_leaves=12
num_cat=0
split_feature=0 1 5 1 0 6 5 3 2 2 2
split_gain=30.2096 21.1791 7.86604 5.69997 4.61979 4.85693 4.43047 2.58994 0.900494 0.311408 0.100772
threshold=3916.7750000000005 3.5000000000000004 0.68325000000000014 3.5000000000000004 6669.0250000000005 48.347500000000004 0.39190000000000008 18.500000000000004 16.271000000000004 28.613500000000005 7.4595000000000011
decision_type=2 2 2 2 2 2 2 2 2 2 2
left_child=1 6 7 4 -2 -6 -1 -3 -4 -8 -5
right_child=3 2 8 10 5 -7 9 -9 -10 -11 -12
leaf_value=0.078752759402111655 0.068261186621809619 0.19515415129687336 0.026729980899817221 0.14692200482758619 0.077289923079955969 0.19101599917611867 -0.022262729974966852 0.10928159494828937 0.086825992863701698 0.039581438318910464 0.21047728788238573
leaf_weight=4.2409468591213253 5.7377516329288509 5.2388167083263379 2.9936095476150504 2.9936095476150495 3.2430770099163038 6.2366865575313568 15.716450124979021 4.2409468591213226 2.9936095476150513 3.2430770099163047 7.9829587936401367
leaf_count=17 23 21 12 12 13 25 63 17 12 13 32
internal_value=0.0923733 0.0478493 0.11943 0.15732 0.122426 0.154383 0.000982859 0.162017 0.0516836 -0.0148591 0.199146
internal_weight=64.8615 38.6675 15.467 26.1941 15.2175 9.47976 23.2005 9.47976 5.98722 18.9595 10.9766
internal_count=260 155 62 105 61 38 93 38 24 76 44
is_linear=0
shrinkage=1


Tree=1
num_leaves=12
num_cat=0
split_feature=0 1 5 1 3 2 5 3 4 5 2
split_gain=26.1234 18.1623 6.91221 5.00876 4.19634 6.59209 3.77268 2.27953 1.69555 0.903588 0.0641351
threshold=3916.7750000000005 3.5000000000000004 0.68325000000000014 3.5000000000000004 12.500000000000002 21.845000000000002 0.39190000000000008 18.500000000000004 49.498500000000007 0.89155000000000018 7.4595000000000011
decision_type=2 2 2 2 2 2 2 2 2 2 2
left_child=1 6 7 4 -2 -6 -1 -3 -8 -4 -5
right_child=3 2 9 10 5 -7 8 -9 -10 -11 -12
leaf_value=-0.012732554272926175 0.07792784818760834 0.096493976784664759 -0.0037084728029385416 0.051407825300918399 -0.053831606993565442 0.068516291828458697 -0.11060905336634402 0.015825064305535003 -0.034999816391808117 -0.063146858829753821 0.11061313314272436
leaf_weight=4.2434172332286861 5.47334957122803 5.2003288865089399 2.9964827299118033 2.983868479728697 5.9749071747064573 3.7335351258516312 15.497410207986833 4.2373362928628922 3.4993655681610099 2.9973345994949341 7.9120488166809082
leaf_count=17 22 21 12 12 24 15 62 17 14 12 32
internal_value=0.000134348 -0.041215 0.0251916 0.0607104 0.0280135 -0.00477625 -0.0845291 0.0652613 -0.099128 -0.0382109 0.100084
internal_weight=64.7494 38.6717 15.4315 26.0777 15.1818 9.70844 23.2402 9.43767 18.9968 5.99382 10.8959
internal_count=260 155 62 105 61 39 93 38 76 24 44
is_linear=0
shrinkage=0.08


Tree=2
num_leaves=12
num_cat=0
split_feature=0 1 5 1 0 6 5 2 2 4 0
split_gain=22.699 15.6406 6.15733 4.41591 3.90761 4.32913 3.24516 2.02685 1.57268 1.4299 0.0803718
threshold=3916.7750000000005 3.5000000000000004 0.65700000000000014 3.5000000000000004 6669.0250000000005 48.347500000000004 0.39190000000000008 12.341500000000002 16.439500000000006 49.498500000000007 5673.1450000000013
decision_type=2 2 2 2 2 2 2 2 2 2 2
left_child=1 6 7 4 -2 -6 -1 -3 -4 -8 -5
right_child=3 2 8 10 5 -7 9 -9 -10 -11 -12
leaf_value=-0.011903581416693301 -0.023322431967643716 0.018922895138032147 -0.055120484022369264 0.049454886942114154 -0.016332330560748568 0.090784704239045264 -0.10266750733780454 0.10106205752467799 0.013888653031059232 -0.032834374052411047 0.10506113932537198
leaf_weight=4.2453723549842861 5.7348774820566204 3.9502609968185407 4.241991162300109 3.1832194179296476 3.2368918061256391 6.1698018610477448 15.43963932991028 4.1907532960176468 2.9863924831151962 3.497742921113967 7.5847660452127457
leaf_count=17 23 16 17 13 13 25 62 17 12 14 31
internal_value=0.000308458 -0.0382596 0.0235003 0.056985 0.026307 0.0558977 -0.078483 0.067636 -0.0283866 -0.0920631 0.0942222
internal_weight=64.4617 38.5522 15.3694 25.9096 15.1416 9.40669 23.1828 8.14101 7.22838 18.9374 10.768
internal_count=260 155 62 105 61 38 93 33 29 76 44
is_linear=0
shrinkage=0.08


Tree=3
num_leaves=13
num_cat=0
split_feature=0 1 5 3 1 2 5 3 2 2 6 5
split_gain=19.6992 13.5777 5.4638 4.01996 3.17903 3.81403 2.81812 2.05593 1.80141 1.14465 0.866265 0.768496
threshold=3916.7750000000005 3.5000000000000004 0.68325000000000014 18.500000000000004 3.5000000000000004 21.781500000000005 0.39190000000000008 18.500000000000004 26.290000000000003 9.3080000000000016 80.13900000000001 0.89155000000000018
decision_type=2 2 2 2 2 2 2 2 2 2 2 2
left_child=1 6 7 8 5 -5 -1 -3 9 -2 -8 -4
right_child=3 2 11 4 -6 -7 10 -9 -10 -11 -12 -13
leaf_value=-0.011129478109015316 0.044358113967423646 0.088013432305945494 -0.002593024766403682 -0.054231372587994556 0.065183044018202643 0.048255904454039732 -0.10200678942012095 0.012012464429713481 0.024807343578777119 0.11975645338913297 -0.051930304701915786 -0.057105293185698902
leaf_weight=4.2468899935483959 3.6814714670181292 5.0936196297407133 2.9955675899982444 4.7274046540260297 4.3461940139532089 2.9568727016448975 11.381521493196489 4.2168620526790619 3.6599204391241065 6.3146452754735947 7.4153419286012641 2.9959511905908585
leaf_count=17 15 21 12 19 18 12 46 17 15 26 30 12
internal_value=0.000462657 -0.0355304 0.02211 0.0535123 0.0175603 -0.0137792 -0.0731336 0.058095 0.0818255 0.0985473 -0.0858727 -0.03412
internal_weight=64.0323 38.3458 15.302 25.6865 12.0305 7.68428 23.0438 9.31048 13.656 9.99612 18.7969 5.99152
internal_count=260 155 62 105 49 31 93 38 56 41 76 24
is_linear=0
shrinkage=0.08


Tree=4
num_leaves=13
num_cat=0
split_feature=0 1 5 1 6 5 0 3 0 4 5 0
split_gain=17.2405 11.7919 4.90402 3.6581 3.32348 2.46841 2.46666 1.86684 1.38905 1.36396 0.967614 0.140819
threshold=3916.7750000000005 3.5000000000000004 0.65700000000000014 3.5000000000000004 61.513500000000008 0.39190000000000008 6669.0250000000005 18.500000000000004 8047.4850000000015 49.498500000000007 0.89155000000000018 5673.1450000000013
decision_type=2 2 2 2 2 2 2 2 2 2 2 2
left_child=1 5 7 4 8 -1 -6 -3 -2 -7 -4 -5
right_child=3 2 10 11 6 9 -8 -9 -10 -11 -12 -13
leaf_value=-0.010406436392738432 -0.049843516172082589 0.091362896406595229 0.00095915017279742457 0.043112316552618088 -0.0056501482720348216 -0.090652191413225516 0.080293490576750753 0.013132063961373792 0.016239945785504785 -0.025482649331741263 -0.053772713406406311 0.095381339584377528
leaf_weight=4.2480372786521938 3.239092871546748 4.2835738360881788 4.2195501178503036 3.1198288053274137 2.9821693748235685 15.137512028217317 5.5746744871139526 3.7132879495620728 3.2022352963685989 3.475375071167945 2.9893187582492828 7.3303648382425308
leaf_count=17 13 18 17 13 12 62 23 15 13 14 12 31
internal_value=0.000590285 -0.0331856 0.0206783 0.0504581 0.0226499 -0.0683778 0.052884 0.0605342 -0.0192233 -0.0804035 -0.0255224 0.0849048
internal_weight=63.515 38.0667 15.2057 25.4484 14.9982 22.8609 8.55684 7.99686 6.44133 18.6129 7.20887 10.4502
internal_count=260 155 62 105 61 93 35 33 26 76 29 44
is_linear=0
shrinkage=0.08


Tree=5
num_leaves=13
num_cat=0
split_feature=0 1 5 3 1 4 5 3 4 5 5 0
split_gain=15.0288 10.2698 4.35241 3.57162 2.56536 2.73514 2.17067 1.69241 1.19622 1.094 1.58336 0.865837
threshold=3916.7750000000005 3.5000000000000004 0.65700000000000014 18.500000000000004 3.5000000000000004 39.83400000000001 0.39190000000000008 18.500000000000004 49.498500000000007 0.58890000000000009 0.77485000000000015 1649.8950000000002
decision_type=2 2 2 2 2 2 2 2 2 2 2 2
left_child=1 6 7 9 5 -5 -1 -3 -8 -2 -11 -4
right_child=3 2 11 4 -6 -7 8 -9 -10 10 -12 -13
leaf_value=-0.0097309384769534314 0.10163216551391814 0.087029051816858452 -0.045079097985977638 0.023198862829425754 0.057301873044625071 -0.063822747951228123 -0.085150473724444314 0.012317668205231181 -0.02394310134523454 0.0033234703002935728 0.073849987394267944 0.0064082994163415334
leaf_weight=4.2488724738359478 5.7050746232271212 4.1907290220260602 3.970913752913475 4.6628603339195234 4.2094101458787918 2.9741745442152023 14.900627911090853 3.7084145247936249 3.4675606936216345 3.5987118780612946 4.0117242634296417 3.2270967215299606
leaf_count=17 24 18 16 19 18 12 62 15 14 15 17 13
internal_value=0.000686394 -0.0309769 0.0194286 0.0475151 0.0137188 -0.0141566 -0.0640211 0.0572798 -0.0754285 0.0745241 0.0447596 -0.0240297
internal_weight=62.8762 37.7142 15.0972 25.162 11.8464 7.63703 22.6171 7.89914 18.3682 13.3155 7.61044 7.19801
internal_count=260 155 62 105 49 31 93 33 76 56 32 29
is_linear=0
shrinkage=0.08


Tree=6
num_leaves=12
num_cat=0
split_feature=1 2 5 3 3 4 6 5 5 3 5
split_gain=12.7612 5.51181 4.45246 3.15914 2.89692 2.9414 2.70033 2.13015 1.85178 2.80468 0.354661
threshold=3.5000000000000004 14.543000000000001 0.89155000000000018 25.500000000000004 16.500000000000004 23.440000000000001 61.513500000000008 0.41925000000000007 0.51590000000000014 19.500000000000004 0.40490000000000004
decision_type=2 2 2 2 2 2 2 2 2 2 2
left_child=1 4 8 7 5 -1 -5 -3 -2 -10 -6
right_child=2 3 -4 6 10 -7 -8 -9 9 -11 -12
leaf_value=-0.064359236059645858 0.089083489687675252 0.070501392773949331 -0.021778651767704344 -0.087191749776003635 -0.041773663276820978 0.031075797309333856 0.0046771298481168531 0.0020699524173697094 0.065659176417104073 -0.0080169515324560563 -0.10207543503246887
leaf_weight=3.0658605247735968 7.9530682414770189 2.9496358484029797 4.800229236483573 3.1293020099401465 2.9937911480665189 3.3244525939226151 3.871161088347435 11.317634239792822 6.9915494322776777 5.3058966845273972 6.5077108293771744
leaf_count=13 34 12 20 13 12 14 16 47 30 22 27
internal_value=0.000816791 -0.0286634 0.0439686 -0.00149572 -0.0627806 -0.0172239 -0.0421548 0.0199087 0.0598449 0.0356583 -0.0888623
internal_weight=62.2103 37.1595 25.0507 21.2677 15.8918 6.39031 7.00046 14.2673 20.2505 12.2974 9.5015
internal_count=260 154 106 88 66 27 29 59 86 52 39
is_linear=0
shrinkage=0.08


Tree=7
num_leaves=12
num_cat=0
split_feature=1 2 5 3 1 3 4 5 5 3 5
split_gain=11.1672 4.86105 3.92418 2.80254 2.61929 2.5412 2.61824 1.93641 1.67316 2.47647 0.325203
threshold=3.5000000000000004 14.543000000000001 0.89155000000000018 25.500000000000004 1.5000000000000002 16.500000000000004 23.440000000000001 0.5404500000000001 0.51590000000000014 19.500000000000004 0.40490000000000004
decision_type=2 2 2 2 2 2 2 2 2 2 2
left_child=1 5 8 7 -5 6 -1 -3 -2 -10 -7
right_child=2 3 -4 4 -6 10 -8 -9 9 -11 -12
leaf_value=-0.061098532700407493 0.084499216596278112 0.056187092306296836 -0.020319274198469899 -0.077121221586517588 0.013246794792793195 -0.039263659658546536 0.029200660124030664 -0.0027058476684503037 0.061942647940984766 -0.0074698235401348713 -0.09643420275097371
leaf_weight=3.0261266976594916 7.7753518074750962 4.5942078232765224 4.8050038516521445 3.8209135681390753 3.1338844001293182 2.9942500144243223 3.3193239122629166 9.6529153734445554 6.882688492536543 5.3119487315416336 6.4001725912094116
leaf_count=13 34 19 20 16 13 12 14 40 30 22 27
internal_value=0.000682807 -0.0269323 0.0413068 -0.00142046 -0.0398544 -0.0591595 -0.016318 0.0187247 0.0563966 0.0334322 -0.0837429
internal_weight=61.7168 36.9418 24.775 21.2019 6.9548 15.7399 6.34545 14.2471 19.97 12.1946 9.39442
internal_count=260 154 106 88 29 66 27 59 86 52 39
is_linear=0
shrinkage=0.08


Tree=8
num_leaves=12
num_cat=0
split_feature=0 1 2 5 2 1 4 2 0 0 2
split_gain=12.6863 6.78993 4.19781 3.27481 2.86749 3.63629 3.40294 1.83564 2.84796 0.744913 0.470794
threshold=3916.7750000000005 3.5000000000000004 23.666500000000003 0.68325000000000014 5.9930000000000012 2.5000000000000004 39.83400000000001 14.543000000000001 1390.2950000000003 5184.0000000000009 4.9845000000000015
decision_type=2 2 2 2 2 2 2 2 2 2 2
left_child=1 7 3 -3 -2 6 -6 10 -9 -7 -1
right_child=4 2 -4 -5 5 9 -8 8 -10 -11 -12
leaf_value=-0.034363666509258491 -0.0074237415549844752 0.023324187769935899 0.083346442149538832 -0.056326137302929812 0.054640862121956631 0.031603435502709928 -0.040534993644840291 -0.052695272668814228 0.028227898898061019 0.096226958382900143 -0.093715535784445914
leaf_weight=2.8125370591878909 5.2316779792308834 6.9497183263301832 3.0236579030752173 4.7021066546440125 4.3458729535341289 2.7757617235183707 3.4237399399280548 9.0863142758607847 3.1172754764556876 8.765568941831587 6.9389748275279999
leaf_count=12 22 30 13 19 18 12 14 38 13 39 30
internal_value=0.00056079 -0.0289843 0.0127333 -0.0107302 0.0440661 0.0576943 0.0128611 -0.0562096 -0.031452 0.0844438 -0.0813856
internal_weight=61.1732 36.6306 14.6755 11.6518 24.5426 19.3109 7.76961 21.9551 12.2036 11.5413 9.75151
internal_count=260 155 62 49 105 83 32 93 51 51 42
is_linear=0
shrinkage=0.08


Tree=9
num_leaves=14
num_cat=0
split_feature=1 2 5 3 4 6 6 4 5 2 4 6 5
split_gain=8.77965 3.85701 3.32003 4.18711 3.38682 2.55776 3.2262 2.38034 4.42777 2.19473 0.668092 0.37789 0.208689
threshold=3.5000000000000004 14.543000000000001 0.51590000000000014 19.500000000000004 29.571500000000004 50.083000000000006 35.487500000000004 34.154000000000003 0.57305000000000017 17.179000000000006 15.969000000000003 76.085000000000022 0.43530000000000008
decision_type=2 2 2 2 2 2 2 2 2 2 2 2 2
left_child=1 7 12 9 -5 6 -3 11 -9 -4 -7 -1 -2
right_child=2 5 3 4 -6 10 -8 8 -10 -11 -12 -13 -14
leaf_value=-0.09258703914548827 0.041928066479476778 0.0075498001215988401 0.011787241048455977 -0.081232252445648204 0.021921043628341758 -0.0059956922203748368 -0.08048009275770257 0.04864780118889666 -0.068334952689437442 0.085306224750096624 0.034557106191504969 -0.038102291608120689 0.095583471768466335
leaf_weight=5.564690634608267 3.5308565497398403 5.9499137848615664 6.2128735631704348 3.1260630637407294 3.3676498979330063 3.2649042159318915 3.610516756772995 3.0784952640533438 3.2483048737049103 3.997617781162262 8.142084062099455 3.4650355875492096 3.9302181303501129
leaf_count=24 16 25 27 13 14 14 15 13 14 18 34 15 18
internal_value=0.000570451 -0.0240613 0.0370804 0.0153592 -0.0319502 -0.00128515 -0.0301677 -0.0531795 -0.0125427 0.0456133 0.0234024 -0.0775628 0.0781482
internal_weight=60.4892 36.3239 24.1653 16.7042 6.49371 20.9674 9.56043 15.3565 6.3268 10.2105 11.407 9.02973 7.46107
internal_count=260 154 106 72 27 88 40 66 27 45 48 39 34
is_linear=0
shrinkage=0.08


Tree=10
num_leaves=11
num_cat=0
split_feature=0 1 2 5 2 4 4 1 5 4
split_gain=10.8094 5.30435 3.6852 3.24009 2.38493 3.39235 3.42186 2.56151 1.67353 1.12897
threshold=3916.7750000000005 3.5000000000000004 17.179000000000006 0.62260000000000015 5.9930000000000012 39.83400000000001 8.7995000000000001 2.5000000000000004 0.39190000000000008 49.498500000000007
decision_type=2 2 2 2 2 2 2 2 2 2
left_child=1 8 3 -3 -2 6 -6 -7 -1 -10
right_child=4 2 -4 -5 5 7 -8 -9 9 -11
leaf_value=-0.0047323737146417336 -0.0060087061934792152 0.032590555842063246 0.059439093665397104 -0.054405136857010906 0.0023379511802064691 -0.037727558779947844 0.098430658490740092 0.051392385663845207 -0.071462861375600636 -0.014840833741970606
leaf_weight=4.220049217343333 5.2092816531658199 3.8252520114183408 5.0308890342712393 5.5860591381788254 3.1366915553808239 3.41662773489952 9.3974806517362577 2.8830077648162842 13.908360719680788 3.3772878795862189
leaf_count=17 22 17 22 23 14 14 42 13 62 14
internal_value=0.000509482 -0.0270015 0.0101937 -0.0193115 0.041078 0.0537482 0.0763329 0.00451097 -0.051323 -0.0618166
internal_weight=59.991 35.9479 14.4422 9.41131 24.0431 18.8338 12.5342 6.29964 21.5057 17.2856
internal_count=260 155 62 40 105 83 56 27 93 76
is_linear=0
shrinkage=0.08


Tree=11
num_leaves=12
num_cat=0
split_feature=0 3 2 3 2 2 4 5 5 2 2
split_gain=9.42137 4.02148 5.08296 2.56229 1.97828 1.66427 1.60267 1.59483 1.54592 1.25011 0.622258
threshold=3916.7750000000005 9.5000000000000018 20.194000000000006 21.500000000000004 8.833000000000002 24.198500000000006 49.025000000000006 0.56415000000000004 0.45345000000000008 4.9845000000000015 10.436500000000001
decision_type=2 2 2 2 2 2 2 2 2 2 2
left_child=1 2 9 5 -5 10 8 -6 -3 -1 -2
right_child=3 6 -4 4 7 -7 -8 -9 -10 -11 -12
leaf_value=0.016608036855725004 0.040248243402095527 -0.016328107744485704 0.082654634844477909 -0.038850131131179903 0.06893771946627815 0.014201181448833396 -0.0011742967431492887 -0.0028257285158037465 -0.067329368497263453 -0.044182948535160999 0.097748762904625155
leaf_weight=2.7462710887193662 4.4140391796827334 6.2603080123663011 3.4313049018383026 3.123509541153906 2.5951265096664429 4.2998164594173423 4.8324070572853079 4.2498520761728287 13.328419044613836 4.9114190191030502 5.0388955175876617
leaf_count=12 19 27 15 13 12 19 20 18 59 22 24
internal_value=0.000555404 -0.0252757 0.0138392 0.0386821 0.00663777 0.0598847 -0.0428824 0.0297012 -0.0526147 -0.0229814 0.077318
internal_weight=59.2314 35.5101 11.089 23.7212 9.96849 13.7528 24.4211 6.84498 19.5887 7.65769 9.45293
internal_count=260 155 49 105 43 62 106 30 86 34 43
is_linear=0
shrinkage=0.08


Tree=12
num_leaves=13
num_cat=0
split_feature=0 1 2 3 1 0 3 2 0 2 3 2
split_gain=8.26866 5.4532 3.2922 2.4736 2.44055 1.49963 1.49773 1.32282 1.72441 1.01048 0.684538 0.521564
threshold=4161.9900000000007 3.5000000000000004 23.666500000000003 21.500000000000004 1.5000000000000002 2012.5800000000002 29.500000000000004 14.543000000000001 1390.2950000000003 24.198500000000006 12.500000000000002 4.9845000000000015
decision_type=2 2 2 2 2 2 2 2 2 2 2 2
left_child=1 7 5 9 -5 -3 -6 11 -9 10 -2 -1
right_child=3 2 -4 4 6 -7 -8 8 -10 -11 -12 -13
leaf_value=-0.026350551868779659 0.089605062899580534 -0.024484801442189546 0.075836920003939781 -0.046307039758978527 -0.0066920503087960492 0.032925440685289666 0.061290379719948711 -0.04437756991104818 0.018254948156836929 0.018383707846085146 0.030210795959891273 -0.082864871283280697
leaf_weight=2.6807045787572878 5.7446812838315982 8.4088403433561307 3.0805732607841483 2.8850158005952817 3.4813185483217239 3.2473590224981299 3.5556884557008743 8.7872960418462736 3.3017766326665869 3.813598856329917 3.2877866923809052 6.4166539311408997
leaf_count=12 27 36 14 12 15 14 16 38 14 17 15 30
internal_value=0.000724867 -0.0229787 0.013912 0.0375173 0.00634746 -0.00715281 0.0310104 -0.0481094 -0.0271836 0.059395 0.073152 -0.0704708
internal_weight=58.6913 35.9232 14.7368 22.7681 9.92202 11.6562 7.03701 21.1864 12.0891 12.8461 9.03247 9.09736
internal_count=260 158 64 102 43 50 31 94 52 59 42 42
is_linear=0
shrinkage=0.08


Tree=13
num_leaves=11
num_cat=0
split_feature=1 6 3 5 5 2 5 5 2 5
split_gain=6.23985 3.56414 4.45712 2.9479 2.43443 3.73977 1.27283 2.00916 1.02402 0.328877
threshold=3.5000000000000004 57.027000000000008 9.5000000000000018 0.89155000000000018 0.40490000000000004 23.666500000000003 0.51590000000000014 0.75365000000000015 26.290000000000003 0.43530000000000008
decision_type=2 2 2 2 2 2 2 2 2 2
left_child=1 2 -1 6 -3 -6 9 -8 -4 -2
right_child=3 4 8 -5 5 -7 7 -9 -10 -11
leaf_value=0.022028664645324842 0.035518700752505954 0.052860309641755178 -0.085048118021416722 -0.021594297990655407 -0.035792419599809402 0.04468467559398847 0.0043000037531732826 0.074532989993913445 -0.023084849681511727 0.089832861485672821
leaf_weight=3.9267347007989875 3.3631023615598741 3.8013517558574703 8.395198389887808 4.5948662161827079 11.159242257475851 4.3516558557748786 8.7291792184114438 2.8010886311531058 3.2426734864711753 3.6664166897535324
leaf_count=17 16 16 37 20 51 19 39 13 14 18
internal_value=0.000809183 -0.0203676 -0.0475988 0.0322296 0.00284209 -0.0118753 0.0459776 0.0259485 -0.070976 0.0715073
internal_weight=58.0315 34.8769 15.5646 23.1547 19.3122 15.5109 18.5598 11.5303 11.6379 7.02952
internal_count=260 154 68 106 86 70 86 52 51 34
is_linear=0
shrinkage=0.08


Tree=14
num_leaves=11
num_cat=0
split_feature=1 6 3 5 5 4 2 6 2 2
split_gain=5.489 3.14931 3.93953 2.62799 2.2724 4.41067 2.69344 1.19376 1.64916 0.919145
threshold=3.5000000000000004 57.027000000000008 9.5000000000000018 0.89155000000000018 0.57305000000000017 29.571500000000004 20.833000000000002 107.724 5.9930000000000012 26.290000000000003
decision_type=2 2 2 2 2 2 2 2 2 2
left_child=1 2 -1 7 5 -3 -6 8 -2 -4
right_child=3 4 9 -5 6 -7 -8 -9 -10 -11
leaf_value=0.020634534777218185 0.0033918726777729174 -0.020191969554216822 -0.080525054664792373 -0.020163820914330707 -0.051184380927227692 0.087999315984687951 0.022381652777503081 -0.0055810142466916814 0.064803306368868427 -0.021714698822821128
leaf_weight=3.9243334829807273 3.7056547701358857 4.3994056433439273 8.2207980602979642 4.5979753583669654 6.2859089970588666 3.6415642350912094 4.8751696646213531 2.5164698362350455 12.087218567728995 3.234919697046279
leaf_count=17 16 20 37 20 29 16 21 12 58 14
internal_value=0.000969426 -0.0189661 -0.0447406 0.0305996 0.00287105 0.0331192 -0.0198526 0.0437317 0.0514537 -0.0669946
internal_weight=57.4894 34.5821 15.3801 22.9073 19.202 8.04097 11.1611 18.3093 15.7929 11.4557
internal_count=260 154 68 106 86 36 50 86 74 51
is_linear=0
shrinkage=0.08


Tree=15
num_leaves=11
num_cat=0
split_feature=0 1 5 2 2 2 4 0 4 5
split_gain=7.11349 3.94545 3.22009 1.78055 1.48423 1.3267 1.98314 1.21464 0.86394 0.416084
threshold=5967.0400000000009 3.5000000000000004 0.51590000000000014 17.179000000000006 29.717500000000005 8.833000000000002 47.519500000000008 2405.8900000000008 11.733500000000001 0.43530000000000008
decision_type=2 2 2 2 2 2 2 2 2 2
left_child=1 4 9 -4 7 -2 8 -1 -7 -3
right_child=5 2 3 -5 -6 6 -8 -9 -10 -11
leaf_value=-0.056007492415456064 0.005113120950053264 0.024661892282804954 -0.032503887357730979 0.027146578193545413 0.013707506205072861 0.023609529766034167 -0.0016281447075214815 -0.012909643212157708 0.090922252103835033 0.080242734458861195
leaf_weight=14.66896308958531 4.1567273288965216 2.8971383124589947 7.7396640181541425 4.1374467313289642 2.8417107909917823 2.5432791560888273 2.6755598336458197 6.7105336487293235 6.1008024364709854 2.4334522634744644
leaf_count=68 18 14 33 19 12 12 12 30 30 12
internal_value=0.00090166 -0.016438 0.0124679 -0.0112299 -0.036654 0.045499 0.0587105 -0.0436614 0.075619 0.0587023
internal_weight=56.9053 41.4289 17.2077 11.8771 24.2212 15.4764 11.3196 21.3795 8.64408 5.33059
internal_count=260 188 78 52 110 72 54 98 42 26
is_linear=0
shrinkage=0.08


Tree=16
num_leaves=12
num_cat=0
split_feature=1 6 3 5 3 4 5 2 1 2 5
split_gain=4.34156 2.80131 3.4039 2.35802 3.47923 2.6634 2.01158 2.90806 1.64126 0.787222 0.38115
threshold=3.5000000000000004 57.027000000000008 9.5000000000000018 0.51590000000000014 19.500000000000004 29.571500000000004 0.40490000000000004 23.666500000000003 4.5000000000000009 26.290000000000003 0.43530000000000008
decision_type=2 2 2 2 2 2 2 2 2 2 2
left_child=1 2 -1 10 8 -6 -3 -8 -5 -4 -2
right_child=3 6 9 4 5 -7 7 -9 -10 -11 -12
leaf_value=0.019452066003043372 0.02987338318550125 0.049531895827335928 -0.075297982345365014 0.0048977540607387906 -0.076896073783110086 0.016185350104698355 -0.031354512053670611 0.040198748116806272 0.06922564167876076 -0.020322856717614565 0.083365880363577421
leaf_weight=3.888002097606658 3.2133051753044155 3.7416848540306118 7.9492240250110608 5.0854591131210309 3.0782528817653647 3.2484417408704758 10.806054368615149 4.2892988175153723 4.418238177895546 3.204085573554039 3.349005788564682
leaf_count=17 16 16 37 23 13 14 51 19 22 14 18
internal_value=0.00107507 -0.0168271 -0.0414066 0.0277211 0.0095094 -0.0334174 0.0038975 -0.00978853 0.038547 -0.0624766 0.0645867
internal_weight=56.2711 33.8783 15.0413 22.3927 15.8304 6.32669 18.837 15.0954 9.5037 11.1533 6.56231
internal_count=260 154 68 106 72 27 86 70 45 51 34
is_linear=0
shrinkage=0.08


Tree=17
num_leaves=10
num_cat=0
split_feature=0 3 5 1 5 1 2 4 4
split_gain=6.21076 3.15619 2.29917 4.02687 2.29362 3.39716 1.13871 1.74201 0.814154
threshold=5967.0400000000009 9.5000000000000018 0.49570000000000008 3.5000000000000004 0.83185000000000009 1.0000000180025095e-35 8.833000000000002 47.519500000000008 11.733500000000001
decision_type=2 2 2 2 2 2 2 2 2
left_child=1 2 -1 -4 5 -3 -2 8 -8
right_child=6 4 3 -5 -6 -7 7 -9 -10
leaf_value=0.063884150166458153 0.0056548630681354118 -0.078802447548234261 -0.057383243472519274 0.039399604998393067 -0.073870547777507387 -0.0023820559703992576 0.021837513547524737 -0.0010391361211873754 0.087315925945590109
leaf_weight=3.5086942315101615 4.1321248710155478 3.6374105513095918 4.0859411209821683 5.0077842324972153 5.1070977896451941 19.220130875706673 2.4947682619094831 2.6453394740819922 5.8248035162687302
leaf_count=17 18 17 19 23 24 88 12 12 30
internal_value=0.00115798 -0.0152007 0.0171213 -0.00546314 -0.029855 -0.0173364 0.0433288 0.0558669 0.0721311
internal_weight=55.6641 40.5671 12.6024 9.09373 27.9646 22.8575 15.097 10.9649 8.31957
internal_count=260 188 59 42 129 105 72 54 42
is_linear=0
shrinkage=0.08


Tree=18
num_leaves=10
num_cat=0
split_feature=0 3 4 0 2 0 4 6 4
split_gain=5.49543 2.78511 2.01488 2.81313 1.96969 3.20871 1.49959 1.06348 1.51067
threshold=5967.0400000000009 9.5000000000000018 6.572000000000001 1390.2950000000003 17.179000000000006 1889.9200000000003 34.154000000000003 43.551500000000011 21.312500000000004
decision_type=2 2 2 2 2 2 2 2 2
left_child=1 4 -3 -4 5 -1 -6 -2 -9
right_child=7 2 3 -5 6 -7 -8 8 -10
leaf_value=-0.050943179734562027 0.0076720009347360889 -0.076300445454581464 -0.043306068706097427 0.0098041675960841967 0.079780584379302771 0.046493323527301615 0.00083532969749942117 0.013319973695385425 0.078015565148566307
leaf_weight=4.238284155726431 4.7623038142919532 3.7592538148164776 12.183136165142061 11.788225308060644 2.8706576079130173 2.7223505079746246 2.5928685069084167 4.204453378915785 5.8959867060184479
leaf_count=20 22 17 57 55 14 13 12 20 30
internal_value=0.00108671 -0.0143519 -0.0281465 -0.0178417 0.0162404 -0.0117818 0.0482406 0.0410727 0.0547111
internal_weight=55.0175 40.1548 27.7306 23.9714 12.4242 6.96063 5.46353 14.8627 10.1004
internal_count=260 188 129 112 59 33 26 72 50
is_linear=0
shrinkage=0.08


Tree=19
num_leaves=12
num_cat=0
split_feature=1 6 3 5 3 5 2 6 5 5 2
split_gain=3.52306 2.39085 2.69289 2.13724 2.8323 1.7654 2.52501 1.43706 0.78335 0.401891 0.110612
threshold=3.5000000000000004 57.027000000000008 9.5000000000000018 0.51590000000000014 9.5000000000000018 0.44635000000000008 19.602500000000003 38.421500000000009 0.74140000000000017 0.43530000000000008 12.616000000000001
decision_type=2 2 2 2 2 2 2 2 2 2 2
left_child=1 2 -1 9 10 -3 -7 -6 -4 -2 -5
right_child=3 5 8 4 7 6 -8 -9 -10 -11 -12
leaf_value=0.016290598272495939 0.027129125776015808 0.041064031070493216 -0.071899640348982774 0.021510744944686324 0.022461921946753366 -0.038323567066835693 0.027396471549082261 -0.03804758964825216 -0.019606219264111945 0.080458495823255025 0.058076282032335121
leaf_weight=3.8264001458883277 3.1162177920341518 4.8440860509872463 7.1352486461400968 2.6764668375253668 2.9759283512830716 7.8619183748960477 5.5557853728532791 6.5079913139343262 3.6191810518503189 3.1506816744804382 3.3074288368225098
leaf_count=17 16 22 34 12 13 39 25 30 17 18 17
internal_value=0.00110875 -0.0152735 -0.0383074 0.0254464 0.00806962 0.00415158 -0.0110985 -0.0187291 -0.0574665 0.0613229 0.0471432
internal_weight=54.5773 32.8426 14.5808 21.7347 15.4678 18.2618 13.4177 9.48392 10.7544 6.2669 5.9839
internal_count=260 154 68 106 72 86 64 43 51 34 29
is_linear=0
shrinkage=0.08


Tree=20
num_leaves=10
num_cat=0
split_feature=0 1 2 3 4 2 3 3 2
split_gain=4.84622 2.36943 1.68313 2.01903 1.54222 1.15808 1.03252 1.44474 0.756679
threshold=5967.0400000000009 3.5000000000000004 23.666500000000003 19.500000000000004 49.025000000000006 13.270500000000002 21.500000000000004 29.500000000000004 10.436500000000001
decision_type=2 2 2 2 2 2 2 2 2
left_child=1 4 3 -3 5 -1 8 -8 -2
right_child=6 2 -4 -5 -6 -7 7 -9 -10
leaf_value=-0.063111222878310197 0.014011021230198982 0.020626334911688846 0.05257554947824003 -0.038485221017653191 0.01090422018532594 -0.020553823158557912 -0.020166097024416164 0.047315652401921773 0.071272479715079093
leaf_weight=7.0979922115802827 2.6528566330671293 7.8164478242397326 3.3538347780704489 5.3861049860715866 4.4394812136888495 11.420723706483839 3.5257960855960837 2.774645671248436 5.6014091074466705
leaf_count=37 12 38 17 23 20 53 16 14 30
internal_value=0.00121561 -0.0133796 0.00939747 -0.00450058 -0.029512 -0.0392632 0.0391529 0.0119626 0.0563717
internal_weight=54.0693 39.5146 16.5564 13.2026 22.9582 18.5187 14.5547 6.30044 8.25427
internal_count=260 188 78 61 110 90 72 30 42
is_linear=0
shrinkage=0.08


Tree=21
num_leaves=13
num_cat=0
split_feature=0 1 3 5 3 1 4 6 3 6 6 0
split_gain=4.34014 2.11755 1.94134 2.94955 1.79103 1.85156 1.30244 1.11094 0.940064 0.749899 0.673082 0.386589
threshold=4161.9900000000007 3.5000000000000004 9.5000000000000018 0.51590000000000014 21.500000000000004 1.5000000000000002 49.025000000000006 80.13900000000001 29.500000000000004 43.551500000000011 54.230000000000011 7469.3450000000012
decision_type=2 2 2 2 2 2 2 2 2 2 2 2
left_child=1 6 10 -4 9 -6 7 -1 -7 -2 -3 -11
right_child=4 2 3 -5 5 8 -8 -9 -10 11 -12 -13
leaf_value=-0.060224108457277853 0.0125328147135025 0.0094087047704188281 0.042173944454780773 -0.047430023443165041 -0.04360334884639535 -0.0052766649421720022 0.0061141344702607325 -0.013847806153732359 0.050563191419188927 0.034720216739709098 0.064673423333645008 0.083759812174684062
leaf_weight=8.9596134722232836 3.3729931563138988 3.0707553923130027 2.7179684340953809 5.6389313042163849 2.7712444067001325 3.2815588414669037 4.0005810856819144 6.070365607738494 3.157715916633606 4.8232556581497175 2.4466421008110046 3.1984701752662659
leaf_count=47 16 15 13 24 12 15 18 29 16 25 12 18
internal_value=0.00124435 -0.0166354 0.00693299 -0.0168948 0.0292452 0.00227179 -0.0333063 -0.0435258 0.0252222 0.0491059 0.0400784 0.0613904
internal_weight=53.5101 32.9049 13.8743 8.3569 20.6052 9.21052 19.0306 15.03 6.43927 11.3947 5.5174 8.02173
internal_count=260 158 64 37 102 43 94 76 31 59 27 43
is_linear=0
shrinkage=0.08


Tree=22
num_leaves=9
num_cat=0
split_feature=0 5 5 1 3 6 6 4
split_gain=3.86578 2.23616 3.0504 1.88436 2.84465 1.64158 4.48233 1.60224
threshold=5967.0400000000009 0.49570000000000008 0.32295000000000001 1.0000000180025095e-35 23.500000000000004 107.724 93.548500000000018 29.571500000000004
decision_type=2 2 2 2 2 2 2 2
left_child=1 2 -1 -2 -5 6 -3 -4
right_child=3 5 7 4 -6 -7 -8 -9
leaf_value=-0.043164358252627349 -0.025355464145993673 -0.03036646925607089 0.0056710391279811822 0.074277419413587231 -0.0038738023929589006 -0.073021392554123016 0.06430347039868578 0.067861694721439117
leaf_weight=3.4458744376897803 2.088731423020362 19.460656940937049 5.7868321090936643 7.6181391701102239 4.4115620255470276 3.0270543098449698 2.8333842083811751 4.2291124314069748
leaf_count=16 9 94 30 41 22 14 14 20
internal_value=0.00136204 -0.0117497 0.0139292 0.0357744 0.0475199 -0.0254123 -0.0160907 0.0357069
internal_weight=52.9013 38.7829 13.4618 14.1184 12.0297 25.3211 22.294 10.0159
internal_count=260 188 66 72 63 122 108 50
is_linear=0
shrinkage=0.08


Tree=23
num_leaves=12
num_cat=0
split_feature=0 3 2 2 1 6 2 2 0 5 2
split_gain=3.36764 2.83226 2.78249 2.70682 3.20266 2.71526 2.09791 1.62763 1.62439 1.51145 0.310993
threshold=1889.9200000000003 12.500000000000002 25.090000000000003 17.179000000000006 3.5000000000000004 93.548500000000018 26.290000000000003 20.833000000000002 174.51000000000002 0.61050000000000015 7.0155000000000003
decision_type=2 2 2 2 2 2 2 2 2 2 2
left_child=3 6 7 5 8 9 10 -3 -5 -1 -2
right_child=1 2 -4 4 -6 -7 -8 -9 -10 -11 -12
leaf_value=-0.023906653392080819 0.027910632011030702 -0.0018656853905226489 0.054694249948811273 0.023594892219617067 0.063701537026485539 0.019019222978771524 -0.010556700003449156 -0.063154345020302691 -0.04726572287432329 -0.092253626780249981 0.081338770507839817
leaf_weight=4.6605449765920657 2.4377687424421328 13.511308953166013 3.739073619246482 2.5408851802349073 3.2950184643268585 2.7866463661193839 2.4423604011535645 2.5108039155602446 4.5125281065702438 4.8509532064199448 5.2387024536728859
leaf_count=24 12 66 18 12 16 13 13 12 21 24 29
internal_value=0.00132603 0.0187002 0.000501128 -0.0214189 0.00851152 -0.0453505 0.0509998 -0.0146161 -0.0219791 -0.0642246 0.0695443
internal_weight=52.5266 29.88 19.7612 22.6466 10.3484 12.2981 10.1188 16.0221 7.05341 9.5115 7.67647
internal_count=260 150 96 110 49 61 54 78 33 48 41
is_linear=0
shrinkage=0.08


Tree=24
num_leaves=10
num_cat=0
split_feature=0 5 5 6 6 4 2 4 4
split_gain=3.18955 1.89796 2.7063 1.54172 3.19526 1.40531 0.978467 1.5866 0.951165
threshold=5967.0400000000009 0.49570000000000008 0.32295000000000001 108.03450000000001 93.548500000000018 29.571500000000004 8.833000000000002 47.519500000000008 11.733500000000001
decision_type=2 2 2 2 2 2 2 2 2
left_child=1 2 -1 4 -3 -4 -2 8 -8
right_child=6 3 5 -5 -6 -7 7 -9 -10
leaf_value=-0.040866680363321424 -0.00088822149651408681 -0.027653453364963641 0.0054165437350307578 -0.073084332944635011 0.048848380881204342 0.063903855346816058 0.012034984653447876 -0.0079338339443609535 0.079025733025084297
leaf_weight=3.4176233410835257 3.9462913870811454 19.157027557492263 5.745085768401621 2.5270067900419226 3.2799683436751357 4.1891893595457077 2.2744817882776243 2.4682368338108063 5.0612459629774094
leaf_count=16 18 94 30 12 16 20 12 12 30
internal_value=0.00128128 -0.0106446 0.0130722 -0.0233443 -0.0148629 0.0336688 0.032982 0.0454358 0.0621905
internal_weight=52.0662 38.3159 13.3519 24.964 22.437 9.93428 13.7503 9.80396 7.33573
internal_count=260 188 66 122 110 50 72 54 42
is_linear=0
shrinkage=0.08


Tree=25
num_leaves=12
num_cat=0
split_feature=0 3 5 5 5 1 1 3 5 5 4
split_gain=2.80604 2.0051 1.749 3.11647 1.62479 2.89601 0.977166 1.35837 0.387604 0.243832 0.078075
threshold=5967.0400000000009 9.5000000000000018 0.83185000000000009 0.74140000000000017 0.49570000000000008 3.5000000000000004 3.5000000000000004 21.500000000000004 0.63905000000000012 0.82600000000000007 19.258000000000006
decision_type=2 2 2 2 2 2 2 2 2 2 2
left_child=1 4 3 -3 -1 -6 7 8 -2 -8 -4
right_child=6 2 10 -5 5 -7 9 -9 -10 -11 -12
leaf_value=0.056957628764371035 0.057704087069403658 -0.025063473942657555 -0.076843229358601411 0.047952349440461957 -0.04890887205495522 0.035244892625746725 0.073247396435689005 -0.019279590359856564 0.011792739768665426 0.020820478993712258 -0.02892204462472725
leaf_weight=3.2587783709168425 2.1785135567188245 18.064322084188468 2.2609394937753668 3.6890279576182357 3.7858108282089216 4.7819183468818665 2.5324974283576003 3.9480393528938293 2.9184905588626862 1.9686993211507795 2.313382014632225
leaf_count=17 12 87 12 18 19 23 17 18 14 11 12
internal_value=0.00128439 -0.00988642 -0.021933 -0.0111178 0.0165504 -0.00316538 0.0312646 0.0133625 0.0376616 0.0582702 -0.062144
internal_weight=51.7004 38.1542 26.3277 21.7534 11.8265 8.56773 13.5462 9.04504 5.097 4.5012 4.57432
internal_count=260 188 129 105 59 42 72 44 26 28 24
is_linear=0
shrinkage=0.08


Tree=26
num_leaves=11
num_cat=0
split_feature=1 0 6 5 0 5 2 5 5 1
split_gain=2.53459 2.73635 2.64839 1.86758 1.7295 1.1926 1.71858 1.2473 1.18577 0.230544
threshold=3.5000000000000004 6669.0250000000005 48.347500000000004 0.89155000000000018 5673.1450000000013 0.83185000000000009 14.543000000000001 0.92925000000000013 0.51590000000000014 1.5000000000000002
decision_type=2 2 2 2 2 2 2 2 2 2
left_child=1 5 -3 4 8 6 -1 -7 -2 -4
right_child=3 2 9 -5 -6 7 -8 -9 -10 -11
leaf_value=-0.042168861573995117 0.046531638144872052 -0.028846220019097979 0.024189725809922177 -0.021475188083993606 0.078167314291844342 -0.08855913533808718 0.0053670894856001827 -0.0085607010432152773 -0.0011755177372846392 0.074915751680636425
leaf_weight=7.5938868150115111 4.5474872663617196 2.8514447361230841 2.3780774474143982 4.1561771631240836 3.4455147460103026 2.5296575725078574 10.774429276585577 2.2942825257778168 8.2385460585355741 2.4190489947795868
leaf_count=40 25 13 11 20 24 13 50 13 37 14
internal_value=0.00135575 -0.012978 0.0262189 0.0226316 0.0345162 -0.0264541 -0.0154479 -0.0585145 0.0179365 0.0582798
internal_weight=51.2286 30.8408 7.64857 20.3877 16.2315 23.1923 18.3683 4.82394 12.786 4.79713
internal_count=260 154 38 106 86 116 90 26 62 25
is_linear=0
shrinkage=0.08


Tree=27
num_leaves=11
num_cat=0
split_feature=0 4 2 1 6 2 4 3 0 4
split_gain=2.38254 2.54576 2.38245 2.73907 2.49185 1.84683 2.41587 2.3176 1.46056 0.714922
threshold=1889.9200000000003 6.7025000000000015 17.179000000000006 3.5000000000000004 93.548500000000018 10.436500000000001 32.344000000000001 16.500000000000004 174.51000000000002 7.2620000000000013
decision_type=2 2 2 2 2 2 2 2 2 2
left_child=2 -2 4 8 9 7 -7 -3 -4 -1
right_child=1 5 3 -5 -6 6 -8 -9 -10 -11
leaf_value=-0.010437888234469266 -0.034790059129122662 0.039494126415972851 0.024326387453429393 0.061681823941496801 0.020548532964568249 0.076554634726354653 0.011238252335921968 -0.03113010846368677 -0.043185227545721246 -0.07022808227977867
leaf_weight=1.981759592890741 4.3567457795143154 4.293831020593645 2.503434553742407 3.1954777464270592 2.7312139719724646 6.4776313304901105 7.8257323950529099 5.7856202125549316 4.3568821996450424 7.1537381261587143
leaf_count=11 22 22 12 16 13 37 41 28 21 37
internal_value=0.00132996 0.0162447 -0.0180784 0.0101913 -0.0409641 0.026375 0.0438879 -0.000195124 -0.0185886 -0.0595673
internal_weight=50.6621 28.7396 21.9225 10.0558 11.8667 24.3828 14.3034 10.0795 6.86032 9.1355
internal_count=260 150 110 49 61 128 78 50 33 48
is_linear=0
shrinkage=0.08


Tree=28
num_leaves=9
num_cat=0
split_feature=1 0 6 5 0 3 3 5
split_gain=2.14826 2.236 1.7876 1.67567 1.637 1.48674 1.74136 1.0881
threshold=3.5000000000000004 7151.5900000000011 48.347500000000004 0.89155000000000018 5673.1450000000013 7.5000000000000009 17.500000000000004 0.51590000000000014
decision_type=2 2 2 2 2 2 2 2
left_child=1 5 -3 4 7 -1 -7 -2
right_child=3 2 -4 -5 -6 6 -8 -9
leaf_value=0.0176283204107422 0.044357653815640649 -0.022129090620198189 0.052836221335954517 -0.020753524113900072 0.076144063148031585 -0.062923183626829859 -0.013233468073498424 -0.0016519296435642053
leaf_weight=3.9626772552728715 4.4254568666219738 2.5784507840871802 4.3167738616466522 4.1151868104934684 3.2417591959238043 6.6709437966346767 12.741923078894613 8.1829664856195432
leaf_count=20 25 12 23 20 24 34 65 37
internal_value=0.00130763 -0.0120022 0.0255509 0.0210975 0.0325501 -0.0236733 -0.0325546 0.01657
internal_weight=50.2361 30.2708 6.89522 19.9654 15.8502 23.3755 19.4129 12.6084
internal_count=260 154 35 106 86 119 99 62
is_linear=0
shrinkage=0.08


Tree=29
num_leaves=11
num_cat=0
split_feature=0 4 3 2 3 5 4 5 5 0
split_gain=1.92173 2.19175 2.66739 2.25427 1.59754 1.57078 1.44772 1.16886 2.62725 0.944734
threshold=1390.2950000000003 7.964500000000001 10.500000000000002 5.9930000000000012 4.5000000000000009 0.51590000000000014 39.83400000000001 0.57795000000000007 0.3625000000000001 485.28500000000003
decision_type=2 2 2 2 2 2 2 2 2 2
left_child=4 2 -2 5 -1 -3 -5 8 -6 -9
right_child=1 3 -4 6 7 -7 -8 9 -10 -11
leaf_value=0.032496063036476508 0.030822954342265906 0.031904694780091454 -0.06393627785247781 0.055145742003598265 -0.052594931152446317 -0.036555467323559555 0.0090883407440727117 -0.018429925721794565 0.036819779267458178 -0.073388031557672678
leaf_weight=2.4101246744394329 2.4194938912987736 2.4246014952659634 3.667354092001915 10.78934955596924 2.7158128619194022 4.9772276356816292 7.6727097630500785 5.1807269006967527 3.8487022221088409 3.6189914122223854
leaf_count=12 13 13 18 62 13 24 38 27 21 19
internal_value=0.00133506 0.0129496 -0.0272356 0.0230686 -0.0191207 -0.0130019 0.0374551 -0.0287086 -0.00223475 -0.0462145
internal_weight=49.7251 31.9507 6.08685 25.8639 17.7744 7.40183 18.4621 15.3642 6.56452 8.79972
internal_count=260 168 31 137 92 37 100 80 34 46
is_linear=0
shrinkage=0.08


Tree=30
num_leaves=8
num_cat=0
split_feature=4 0 3 4 1 5 3
split_gain=2.16246 2.03217 2.18987 3.13269 1.98988 3.16278 1.17497
threshold=1.5400000000000003 1649.8950000000002 12.500000000000002 7.964500000000001 1.0000000180025095e-35 0.87770000000000004 6.5000000000000009
decision_type=2 2 2 2 2 2 2
left_child=-1 4 6 -4 -2 -6 -3
right_child=1 2 3 -5 5 -7 -8
leaf_value=-0.063831294035824382 -0.063341317186484641 0.015935125470964921 -0.075068175165664552 0.014434333932869244 0.016404674726497512 -0.066012677629456354 0.073180900194014312
leaf_weight=2.0825047492980948 3.221746705472472 5.0999804139137286 1.9136884957551981 16.770200431346893 12.879421398043631 2.7951256781816474 4.6079644933342934
leaf_count=11 18 29 9 87 65 15 26
internal_value=0.00115872 0.0052834 0.0185553 0.00191912 -0.0145881 -0.00136969 0.047404
internal_weight=49.3706 47.2881 28.3918 18.6839 18.8963 15.6745 9.70794
internal_count=260 249 151 96 98 80 55
is_linear=0
shrinkage=0.08


Tree=31
num_leaves=8
num_cat=0
split_feature=1 3 2 6 6 5 3
split_gain=1.9733 3.92871 1.64244 2.35732 2.12296 1.47603 0.925254
threshold=4.5000000000000009 23.500000000000004 30.545000000000005 21.518000000000004 35.487500000000004 0.72440000000000004 24.500000000000004
decision_type=2 2 2 2 2 2 2
left_child=2 5 3 6 -5 -2 -1
right_child=1 -3 -4 4 -6 -7 -8
leaf_value=-0.079675429562959227 0.087047350920142263 -0.031182433666157042 0.039464181270281229 0.044767305322353804 -0.011769577266598585 0.0032130496206576281 -0.012784323944468316
leaf_weight=3.1009269952774039 4.3698862716555578 3.5017783418297768 3.3494362831115714 4.0447651892900494 26.113875240087509 1.8981269299983976 2.6199586987495422
leaf_count=15 27 17 17 21 137 12 14
internal_value=0.000834353 0.0312327 -0.0073244 -0.0126439 -0.00299366 0.0655951 -0.0555019
internal_weight=48.9988 9.76979 39.229 35.8795 30.1586 6.26801 5.72089
internal_count=260 56 204 187 158 39 29
is_linear=0
shrinkage=0.08


Tree=32
num_leaves=8
num_cat=0
split_feature=4 0 5 1 2 4 0
split_gain=1.96987 1.88768 1.32767 2.25077 1.12924 2.69606 1.04314
threshold=1.5400000000000003 5967.0400000000009 0.87770000000000004 1.0000000180025095e-35 8.833000000000002 49.498500000000007 998.6450000000001
decision_type=2 2 2 2 2 2 2
left_child=-1 2 3 -2 -3 -6 -4
right_child=1 4 6 -5 5 -7 -8
leaf_value=-0.061720026269403414 -0.043288215644387895 -0.004609450933794665 -0.070583839589720102 0.012701714497147288 0.070065060433411777 -0.025377765754001903 -0.0060155203336308884
leaf_weight=2.0299904942512503 4.6140523403883007 3.7753499746322623 2.1309937164187422 24.381622917950153 6.0943220630288106 1.9958479925990102 3.7036001980304718
leaf_count=11 25 18 13 123 41 10 19
internal_value=0.000846422 0.00480336 -0.00474248 0.00264598 0.031015 0.0463177 -0.0364751
internal_weight=48.7258 46.6958 34.8303 28.9957 11.8655 8.09017 5.83459
internal_count=260 249 180 148 69 51 32
is_linear=0
shrinkage=0.08


Tree=33
num_leaves=11
num_cat=0
split_feature=1 3 0 2 6 4 6 2 6 0
split_gain=1.73076 3.56182 1.73318 1.89706 1.62099 1.56833 2.58871 2.27422 1.38201 0.00471235
threshold=4.5000000000000009 23.500000000000004 1889.9200000000003 17.833500000000004 37.149000000000008 19.258000000000006 30.331500000000002 10.436500000000001 92.183500000000024 2012.5800000000002
decision_type=2 2 2 2 2 2 2 2 2 2
left_child=2 9 3 8 -5 7 -7 -4 -1 -2
right_child=1 -3 5 4 -6 6 -8 -9 -10 -11
leaf_value=-0.065202165377323221 0.033768937216219937 -0.029686002101375428 -0.069100874229089435 0.048966769633697504 -0.020269304397119967 -0.035102637949595263 0.037369029390864179 0.015630119150490999 0.0036894916424554474 0.075799836918007901
leaf_weight=6.6617805734276789 2.8948771581053716 3.484405629336834 2.6380378454923656 2.2870547696948043 5.3574962615966797 3.2673210799694052 12.350924655795096 3.9267544373869896 2.3265276551246643 3.0988200530409813
leaf_count=37 16 17 13 12 27 16 65 22 12 23
internal_value=0.000580713 0.0294988 -0.00704407 -0.0258153 0.00371268 0.00753702 0.021008 -0.0230523 -0.0487862 0.0632306
internal_weight=48.294 9.4781 38.8159 16.6329 7.64455 22.183 15.6182 6.56479 8.98831 5.9937
internal_count=260 56 204 88 39 116 81 35 49 39
is_linear=0
shrinkage=0.08


Tree=34
num_leaves=10
num_cat=0
split_feature=5 1 6 2 3 2 5 2 6
split_gain=1.77908 2.24886 1.5768 1.5453 2.32981 2.95471 1.36562 1.19581 0.677567
threshold=0.51590000000000014 1.0000000180025095e-35 59.466000000000001 30.786000000000005 19.500000000000004 3.9465000000000003 0.63905000000000012 18.115000000000006 86.019500000000008
decision_type=2 2 2 2 2 2 2 2 2
left_child=1 -1 7 4 5 -2 -6 -3 -4
right_child=3 2 8 -5 6 -7 -8 -9 -10
leaf_value=-0.031912545553548714 0.069898134247488475 -0.025601342495930785 0.083216108015729803 0.035403576702912908 -0.080671706590847561 -0.01210531087072755 -0.021319675484029341 0.039121873076898475 0.026312961314597136
leaf_weight=3.145998701453208 2.4613679647445741 3.2512692213058454 3.1879541277885437 3.2480977475643149 3.1316732168197623 14.038678810000418 9.1229511946439725 2.2078930661082268 4.0196052342653275
leaf_count=16 12 17 20 17 15 79 48 12 24
internal_value=0.00053473 0.021706 0.0363837 -0.0102668 -0.0164422 0.00342258 -0.0414291 0.00257937 0.0585541
internal_weight=47.8155 15.8127 12.6667 32.0028 28.7547 16.5 12.2546 5.45916 7.20756
internal_count=260 89 73 171 154 91 63 29 44
is_linear=0
shrinkage=0.08


Tree=35
num_leaves=11
num_cat=0
split_feature=5 6 2 6 2 3 2 4 5 5
split_gain=1.56816 1.48226 1.95972 1.96549 1.35641 2.07401 2.61488 1.25802 1.24115 0.43371
threshold=0.51590000000000014 59.466000000000001 12.341500000000002 33.108500000000006 30.786000000000005 19.500000000000004 3.9465000000000003 24.496500000000005 0.62260000000000015 0.44635000000000008
decision_type=2 2 2 2 2 2 2 2 2 2
left_child=1 2 -1 -4 5 6 -2 -3 -7 -9
right_child=4 7 3 -5 -6 8 -8 9 -10 -11
leaf_value=-0.050401121926690558 0.06596874419946791 0.0054413728822910006 0.061550186801631684 -0.025137364315884782 0.033367132099192197 -0.082878984420438631 -0.011196366790382814 0.088089713393786406 -0.022076991143491261 0.023024655047920221
leaf_weight=2.655267894268035 2.4589841514825919 3.7158184722065908 2.6802994012832642 2.2992041930556297 3.2323223799467078 2.2967619225382796 14.045004606246946 2.2834156714379787 9.8834262341260892 2.0031900852918625
leaf_count=14 12 22 15 12 17 11 79 13 52 13
internal_value=0.000635454 0.0206407 -0.00470653 0.0240137 -0.00949523 -0.0152866 0.00341268 0.04266 -0.0389604 0.0677907
internal_weight=47.5537 15.6372 7.63477 4.9795 31.9165 28.6842 16.504 8.00242 12.1802 4.28661
internal_count=260 89 41 27 171 154 91 48 63 26
is_linear=0
shrinkage=0.08


Tree=36
num_leaves=12
num_cat=0
split_feature=1 6 0 3 0 2 2 3 4 3 3
split_gain=1.71547 1.64921 2.19992 1.44441 1.25853 1.15868 1.14536 0.868545 0.703521 0.574513 0.337222
threshold=3.5000000000000004 47.143000000000008 6669.0250000000005 9.5000000000000018 5054.4350000000004 7.0155000000000003 23.666500000000003 9.5000000000000018 15.969000000000003 17.500000000000004 19.500000000000004
decision_type=2 2 2 2 2 2 2 2 2 2 2
left_child=1 3 8 -1 6 -6 7 -2 -3 -5 -4
right_child=4 2 10 9 5 -7 -8 -9 -10 -11 -12
leaf_value=0.013306842131163885 0.019956152918304437 -0.039123625953334823 0.06743357259775383 -0.081667904734950961 -0.0022050572512633268 0.072980001859021107 0.042466830557419975 -0.023341904262831118 -0.00080390439955098575 -0.029097830101945839 0.015965509789297651
leaf_weight=2.6223834604024914 3.8054532557725924 3.4021343514323261 1.9516419544816006 2.0634459778666479 1.8313006535172451 3.1659053228795528 2.9089857339859 6.9395161867141724 10.24801481515169 6.1067529246211052 2.26213588565588
leaf_count=13 20 18 13 11 9 27 17 33 53 34 12
internal_value=0.000733622 -0.0114283 0.00370292 -0.0346636 0.0190504 0.0496539 0.0052257 -0.0076139 -0.0123732 -0.0498328 0.048165
internal_weight=47.3077 28.6565 17.8639 10.7926 18.6512 4.99721 13.654 10.745 13.6501 8.1702 4.21378
internal_count=260 154 96 58 106 36 70 53 71 45 25
is_linear=0
shrinkage=0.08


Tree=37
num_leaves=11
num_cat=0
split_feature=1 3 0 2 6 6 4 2 6 0
split_gain=1.55519 3.0193 1.38397 1.694 1.36436 1.34674 1.31173 1.9436 1.93458 0.00158281
threshold=4.5000000000000009 23.500000000000004 1889.9200000000003 17.833500000000004 37.149000000000008 59.466000000000001 19.258000000000006 10.436500000000001 30.331500000000002 439.22000000000008
decision_type=2 2 2 2 2 2 2 2 2 2
left_child=2 9 3 5 -5 -1 7 -4 -8 -2
right_child=1 -3 6 4 -6 -7 8 -9 -10 -11
leaf_value=-0.078107865050499603 0.024064355207849518 -0.026124485842771682 -0.065276796615505617 0.046388673841445044 -0.017755493467921293 -0.014725741549133845 -0.029976692329984882 0.014545748441940691 0.033398755246511126 0.067385795487542505
leaf_weight=3.4940933436155337 1.582918256521223 3.423233687877655 2.4989156424999264 2.2269006147980681 5.2388513311743736 5.2414198443293571 3.1844610422849646 3.7694979459047318 12.048098936676977 4.0986121743917465
leaf_count=20 9 17 13 12 27 29 16 22 65 30
internal_value=0.000784229 0.0287167 -0.00652892 -0.0234876 0.00459708 -0.0454967 0.00672557 -0.0218785 0.0191192 0.0607242
internal_weight=46.807 9.10476 37.7022 16.2013 7.46575 8.73551 21.501 6.26841 15.2326 5.68153
internal_count=260 56 204 88 39 49 116 35 81 39
is_linear=0
shrinkage=0.08


Tree=38
num_leaves=7
num_cat=0
split_feature=4 1 3 4 2 5
split_gain=1.75018 1.37051 2.49459 1.83557 1.78816 1.05471
threshold=1.5400000000000003 4.5000000000000009 23.500000000000004 4.9720000000000004 12.616000000000001 0.72440000000000004
decision_type=2 2 2 2 2 2
left_child=-1 3 5 -2 -5 -3
right_child=1 2 -4 4 -6 -7
leaf_value=-0.059755510722199874 0.049778073721220409 0.080877496649522915 -0.020225875413081896 -0.028754279170486476 0.0077410397177468905 0.0031649671155703587
leaf_weight=1.8876663371920575 2.8629579916596404 3.6473328024148923 3.2219010889530182 14.333234388381241 18.814424626529217 1.5822934508323667
leaf_count=11 16 26 16 80 100 11
internal_value=0.00065197 0.00447459 0.0315976 -0.00257281 -0.00841967 0.061647
internal_weight=46.3498 44.4621 8.45153 36.0106 33.1477 5.22963
internal_count=260 249 53 196 180 37
is_linear=0
shrinkage=0.08


Tree=39
num_leaves=8
num_cat=0
split_feature=4 0 5 4 2 4 0
split_gain=1.59135 1.3264 1.15901 1.22214 0.907413 2.28737 0.891312
threshold=1.5400000000000003 5967.0400000000009 0.87770000000000004 49.025000000000006 8.833000000000002 49.498500000000007 998.6450000000001
decision_type=2 2 2 2 2 2 2
left_child=-1 2 3 -2 -3 -6 -4
right_child=1 4 6 -5 5 -7 -8
leaf_value=-0.057239056214264554 -0.0055752070712798167 -0.0048830866769727687 -0.066821847338481274 0.033450723975348255 0.065301195712870769 -0.02442340896395849 -0.0058168569248993806
leaf_weight=1.8581942245364178 22.004370965063575 3.6552588641643506 1.9472476914525021 5.6228222548961631 5.430513683706522 1.9266380146145818 3.6398765668272972
leaf_count=11 121 18 13 27 41 10 19
internal_value=0.000668227 0.00431302 -0.00381846 0.00325858 0.0271144 0.0416938 -0.0339951
internal_weight=46.0849 44.2267 33.2143 27.6272 11.0124 7.35715 5.58712
internal_count=260 249 180 148 69 51 32
is_linear=0
shrinkage=0.08


Tree=40
num_leaves=11
num_cat=0
split_feature=5 1 5 6 6 6 6 4 6 2
split_gain=1.44943 1.83159 1.31786 1.53782 2.65736 2.58475 1.24451 0.923881 0.914398 0.893104
threshold=0.51590000000000014 1.0000000180025095e-35 0.61555000000000015 84.219500000000011 108.03450000000001 35.487500000000004 59.466000000000001 14.988000000000001 75.551500000000019 18.115000000000006
decision_type=2 2 2 2 2 2 2 2 2 2
left_child=1 -1 8 5 -5 -4 9 -8 -2 -3
right_child=2 6 3 4 -6 -7 7 -9 -10 -11
leaf_value=-0.029230541629601862 -0.007241034192566706 -0.021512776898164835 0.01946735111366546 0.049049985998425964 -0.035737953756350763 -0.042952674917211497 0.012351859771196926 0.07547056916523058 -0.066393288279341947 0.035280889572582498
leaf_weight=2.9812608286738387 3.469131704419854 3.1577475070953351 6.8566717803478268 6.5911950059235078 2.5923165306448936 8.5223004817962629 2.7811234518885612 3.9261942245066166 2.819105438888073 2.0965198799967766
leaf_count=16 21 17 36 37 14 48 17 27 15 12
internal_value=0.000510703 0.0201918 -0.00935671 -0.000473104 0.023957 -0.0156334 0.0338145 0.0542973 -0.0392309 0.00316636
internal_weight=45.7936 14.9428 30.8507 24.5625 9.18351 15.379 11.9616 6.70732 6.28824 5.25427
internal_count=260 89 171 135 51 84 73 44 36 29
is_linear=0
shrinkage=0.08


Tree=41
num_leaves=8
num_cat=0
split_feature=4 3 2 0 0 2 4
split_gain=1.42152 1.21959 1.95956 2.12474 0.824572 2.28035 1.00961
threshold=1.5400000000000003 9.5000000000000018 30.786000000000005 143.44500000000002 1889.9200000000003 18.115000000000006 28.359500000000004
decision_type=2 2 2 2 2 2 2
left_child=-1 4 3 -3 5 -2 -6
right_child=1 2 -4 -5 6 -7 -8
leaf_value=-0.054666666476261554 -0.034571784562251538 -0.06906104701045504 0.051900962499845528 -0.0031995285797232955 0.069488309175260748 0.049627992098220226 0.0072926704864106316
leaf_weight=1.8173708468675602 3.7245433181524259 2.5852074921131196 2.5184611976146689 25.891563806682825 2.9857821278274059 2.6503091901540756 3.3284409530460835
leaf_count=11 21 15 14 144 21 13 21
internal_value=0.000458253 0.00392365 -0.0047203 -0.0113187 0.0238404 0.00241654 0.0421824
internal_weight=45.5017 43.6843 30.9952 28.4768 12.6891 6.37485 6.31422
internal_count=260 249 173 159 76 34 42
is_linear=0
shrinkage=0.08


Tree=42
num_leaves=11
num_cat=0
split_feature=1 6 6 3 5 6 6 3 6 5
split_gain=1.43849 1.36765 1.29379 1.86668 1.01788 1.43178 1.30844 0.870685 1.07999 1.07209
threshold=3.5000000000000004 47.143000000000008 35.487500000000004 11.500000000000002 0.90700000000000014 107.724 20.412500000000005 26.500000000000004 89.981000000000009 0.40490000000000004
decision_type=2 2 2 2 2 2 2 2 2 2
left_child=1 2 3 -1 5 6 -2 9 -9 -3
right_child=4 7 -4 -5 -6 -7 -8 8 -10 -11
leaf_value=0.04663857878309581 -0.0098928970760360727 0.048488758742863423 -0.0668280719520295 -0.032804971847885327 -0.018688737341120459 -0.025450696591872997 0.049463671443882806 0.011282437980435878 -0.054509925343036059 -0.0006456980169631711
leaf_weight=1.746034517884256 2.6794025152921703 3.0743042901158359 3.362443208694458 5.2284371703863144 3.2443331629037848 2.133899323642253 9.6400061845779401 2.6349922716617575 2.1917026489973068 9.3125887811183912
leaf_count=9 15 16 19 30 18 13 60 14 12 54
internal_value=0.000453157 -0.0108529 -0.0324415 -0.00956208 0.0176927 0.0265402 0.0367804 0.00318066 -0.0228205 0.0142602
internal_weight=45.2481 27.5505 10.3369 6.97447 17.6976 14.4533 12.3194 17.2136 4.82669 12.3869
internal_count=260 154 58 39 106 88 75 96 26 70
is_linear=0
shrinkage=0.08


Tree=43
num_leaves=11
num_cat=0
split_feature=5 5 0 4 2 3 6 2 6 4
split_gain=1.27663 1.21545 1.4368 3.07142 1.45338 1.2696 1.0157 1.42611 1.92569 0.967939
threshold=0.51590000000000014 0.61555000000000015 1390.2950000000003 9.1420000000000012 17.179000000000006 18.500000000000004 59.466000000000001 12.341500000000002 35.487500000000004 24.496500000000005
decision_type=2 2 2 2 2 2 2 2 2 2
left_child=6 5 4 -4 -3 -2 7 -1 -9 -8
right_child=1 2 3 -5 -6 -7 9 8 -10 -11
leaf_value=-0.042604549677121212 -0.003739732306158915 -0.057499569832453079 -0.052480028154455412 0.029644164419876346 0.00510901946626156 -0.072112729874509451 0.0042219365043585505 0.0595414353632263 -0.028096765030667929 0.060785820853024211
leaf_weight=2.495241701602934 3.6522645875811603 3.6236661300063151 2.7040065228939048 13.251826670020817 4.5697179511189461 2.5309576019644737 3.4528379552066326 2.590304508805275 2.0877034887671471 3.927473608404398
leaf_count=14 23 24 15 72 24 13 22 16 11 26
internal_value=0.000328929 -0.00897891 -0.000370027 0.0134524 -0.0258232 -0.0378695 0.0190583 -0.00267896 0.0223701 0.0379843
internal_weight=44.886 30.3324 24.1492 15.9558 8.19338 6.18322 14.5536 7.17325 4.67801 7.38031
internal_count=260 171 135 87 48 36 89 41 27 48
is_linear=0
shrinkage=0.08


Tree=44
num_leaves=11
num_cat=0
split_feature=1 6 0 6 2 0 2 2 5 5
split_gain=1.28608 1.15746 1.67143 1.12796 1.58017 0.978126 0.989271 0.823649 0.766242 0.712925
threshold=3.5000000000000004 47.143000000000008 6669.0250000000005 35.487500000000004 14.543000000000001 5054.4350000000004 7.0155000000000003 23.666500000000003 0.40490000000000004 0.68325000000000014
decision_type=2 2 2 2 2 2 2 2 2 2
left_child=1 3 8 4 -1 7 -7 9 -3 -2
right_child=5 2 -4 -5 -6 6 -8 -9 -10 -11
leaf_value=-0.055026346070998468 0.0097410561337009181 0.017763399690057847 0.042635279848797294 -0.063447504148230915 0.016425884893026453 -0.0024840675750707609 0.068514757895822842 0.036802974747719791 -0.022460088854579348 -0.029819281783235636
leaf_weight=2.0427844822406787 6.2436093464493769 3.3618696853518513 3.872253641486167 3.2326254621148109 4.7984206825494766 1.7977301627397526 2.7043389081954956 2.6775117218494406 9.8338721543550474 3.9579831957817078
leaf_count=14 34 16 25 19 25 9 27 17 55 19
internal_value=0.000133022 -0.0106197 0.00231801 -0.0307697 -0.00920638 0.0165883 0.0448653 0.00418329 -0.0116829 -0.0068993
internal_weight=44.523 27.1418 17.068 10.0738 6.84121 17.3812 4.50207 12.8791 13.1957 10.2016
internal_count=260 154 96 58 39 106 36 70 71 53
is_linear=0
shrinkage=0.08


Tree=45
num_leaves=13
num_cat=0
split_feature=1 3 0 0 1 3 0 3 3 5 6 1
split_gain=1.15209 1.24458 1.44437 1.61856 1.19447 1.08588 0.909754 0.995874 2.31529 1.65953 0.58651 0.215251
threshold=3.5000000000000004 25.500000000000004 998.6450000000001 157.23500000000004 1.5000000000000002 31.500000000000004 5673.1450000000013 9.5000000000000018 5.5000000000000009 0.51590000000000014 76.085000000000022 1.5000000000000002
decision_type=2 2 2 2 2 2 2 2 2 2 2 2
left_child=1 2 3 -1 -4 11 7 8 -2 -9 -8 -3
right_child=6 5 4 -5 -6 -7 10 9 -10 -11 -12 -13
leaf_value=0.0092430637183535912 -0.01508759890151818 -0.066416023559957196 0.036850096050232532 -0.071147031386400592 -0.0074589987755481844 0.0068139728836178618 0.067480031278833202 0.033651607832058221 0.078788461717971797 -0.033924726094668775 0.0040169527196082027 -0.020735501477927236
leaf_weight=2.8231035843491616 3.0816021338105228 2.9617275670170775 6.6402862295508367 2.1843032240867615 7.3751228898763657 2.5393930003046989 2.0113807134330268 2.5957018584012967 2.1176667064428329 5.8072962462902069 1.543752823024988 2.3370867669582367
leaf_count=15 17 17 38 16 40 15 17 16 14 28 14 13
internal_value=0.000160023 -0.0100622 0.00139135 -0.0318301 0.01459 -0.0348714 0.0158363 0.00507593 0.0296897 -0.0116914 0.046854 -0.0527589
internal_weight=44.0184 26.861 19.0228 5.00741 14.0154 7.83821 17.1574 13.6023 5.19927 8.403 3.55513 5.29881
internal_count=260 154 109 31 78 45 106 75 31 44 31 30
is_linear=0
shrinkage=0.08


Tree=46
num_leaves=6
num_cat=0
split_feature=4 2 5 1 6
split_gain=1.21821 1.1581 1.1721 1.60989 0.816747
threshold=1.5400000000000003 31.045500000000004 0.51590000000000014 1.0000000180025095e-35 88.281500000000008
decision_type=2 2 2 2 2
left_child=-1 2 3 -2 -4
right_child=1 -3 4 -5 -6
leaf_value=-0.052141601883223497 -0.02858939835276908 0.048257852412520993 -0.019546422041102133 0.032169089445764493 0.0095155555651826942
leaf_weight=1.6803145110607136 2.8338895216584197 2.3994357176125041 17.735042620450262 10.485604885965584 8.5053875930607301
leaf_count=11 16 15 101 67 50
internal_value=0.000188452 0.00344903 -0.000391548 0.0181482 -0.010123
internal_weight=43.6397 41.9594 39.5599 13.3195 26.2404
internal_count=260 249 234 83 151
is_linear=0
shrinkage=0.08


Tree=47
num_leaves=6
num_cat=0
split_feature=4 2 3 0 4
split_gain=1.10973 1.03824 1.53864 2.20411 0.907865
threshold=1.5400000000000003 31.045500000000004 9.5000000000000018 143.44500000000002 34.154000000000003
decision_type=2 2 2 2 2
left_child=-1 2 4 -4 -2
right_child=1 -3 3 -5 -6
leaf_value=-0.050053876266840248 0.039644127440956294 0.045826761895249042 -0.068792689575977201 -0.0020709204146252252 -0.0039240008094974998
leaf_weight=1.6532072573900212 6.8658274821937066 2.3785131834447375 2.6358518153429058 25.205286256968975 4.7391461133956909
leaf_count=11 45 15 16 146 27
internal_value=0.000156199 0.00326333 -0.000372734 -0.010554 0.0229523
internal_weight=43.4778 41.8246 39.4461 27.8411 11.605
internal_count=260 249 234 162 72
is_linear=0
shrinkage=0.08


Tree=48
num_leaves=8
num_cat=0
split_feature=1 3 5 3 5 5 4
split_gain=1.07234 2.49413 1.18714 1.02588 1.09079 1.51797 1.33582
threshold=4.5000000000000009 23.500000000000004 0.72440000000000004 31.500000000000004 0.39190000000000008 0.34370000000000006 19.258000000000006
decision_type=2 2 2 2 2 2 2
left_child=3 2 -2 4 5 -1 -6
right_child=1 -3 -4 -5 6 -7 -8
leaf_value=-0.012641956371296153 0.077582651444589895 -0.025683659466556721 -0.0026695449893794276 0.030157668455706922 -0.042404967735887492 0.061177479456846165 -0.004627419972820894
leaf_weight=3.7149812057614353 3.3665814101695997 3.2054204866290092 1.5276155583560465 3.4591665454208842 8.275512136518957 2.0112380608916283 17.733988162130117
leaf_count=21 27 17 12 21 53 11 98
internal_value=6.96791e-05 0.0246178 0.0563306 -0.0061038 -0.0108568 0.0185265 -0.0177722
internal_weight=43.2945 8.09962 4.8942 35.1949 31.7357 5.72622 26.0095
internal_count=260 56 39 204 183 32 151
is_linear=0
shrinkage=0.08


Tree=49
num_leaves=13
num_cat=0
split_feature=1 3 3 0 0 3 0 3 5 6 4 6
split_gain=0.995792 1.14397 1.3249 1.59153 1.0103 0.912669 0.829317 0.853186 1.30174 0.568792 0.347662 0.213373
threshold=3.5000000000000004 25.500000000000004 17.500000000000004 6669.0250000000005 5054.4350000000004 31.500000000000004 5673.1450000000013 9.5000000000000018 0.51590000000000014 76.085000000000022 21.049500000000005 77.729000000000013
decision_type=2 2 2 2 2 2 2 2 2 2 2 2
left_child=1 2 3 -1 -4 11 7 10 -9 -8 -2 -3
right_child=6 5 4 -5 -6 -7 9 8 -10 -11 -12 -13
leaf_value=-0.030346022502935697 0.045430096280396792 -0.063421913091547183 0.05016050029257859 0.030367746121972003 -0.006986786137288801 0.005019751171815085 0.065706360370901912 0.029996014719051289 -0.030738030350269761 0.0030019190939204101 0.0049333013472018091 -0.01875495016084365
leaf_weight=8.9333491623401695 2.2812390401959446 2.8851370811462393 3.8596186414360991 2.9258786365389815 2.9743373915553093 2.5503342971205711 1.9201451577246182 2.4757639691233617 5.7007579430937767 1.5020884498953817 2.7830886021256447 2.2428049892187119
leaf_count=51 15 19 23 20 15 15 17 16 28 14 16 11
internal_value=0.0002221 -0.00933908 0.00171509 -0.0141702 0.0275714 -0.0333476 0.0150259 0.00463604 -0.0110836 0.0450865 0.0276585 -0.0501345
internal_weight=43.0345 26.3715 18.6932 11.8592 6.83396 7.67828 16.6631 13.2408 8.17652 3.42223 5.06433 5.12794
internal_count=260 154 109 71 38 45 106 75 44 31 31 30
is_linear=0
shrinkage=0.08


Tree=50
num_leaves=6
num_cat=0
split_feature=4 2 3 0 4
split_gain=0.961773 0.951811 1.33472 1.92348 0.774544
threshold=1.5400000000000003 31.045500000000004 9.5000000000000018 143.44500000000002 34.154000000000003
decision_type=2 2 2 2 2
left_child=-1 2 4 -4 -2
right_child=1 -3 3 -5 -6
leaf_value=-0.047106773178743289 0.037303278100551389 0.044222671938830879 -0.065269502847656855 -0.0019240906730957432 -0.0032809445330909764
leaf_weight=1.5755800306797016 6.6906425058841688 2.3412778154015532 2.5101119577884701 24.893350027501583 4.6976781561970711
leaf_count=11 45 15 16 146 27
internal_value=0.000359219 0.00325227 -0.000269704 -0.00982009 0.0216488
internal_weight=42.7086 41.1331 38.7918 27.4035 11.3883
internal_count=260 249 234 162 72
is_linear=0
shrinkage=0.08


Tree=51
num_leaves=8
num_cat=0
split_feature=1 3 5 3 5 5 4
split_gain=0.915317 2.19102 1.08486 0.899394 1.01148 1.33945 1.18879
threshold=4.5000000000000009 23.500000000000004 0.72440000000000004 31.500000000000004 0.39190000000000008 0.34370000000000006 19.258000000000006
decision_type=2 2 2 2 2 2 2
left_child=3 2 -2 4 5 -1 -6
right_child=1 -3 -4 -5 6 -7 -8
leaf_value=-0.011061861338832992 0.075180323188141246 -0.023818989022024978 -0.0025168567749561839 0.02850771544247405 -0.040243713179551069 0.058886831653522674 -0.0042786787828715776
leaf_weight=3.6716971695423153 3.1387782152742139 3.1626128144562244 1.5053303986787794 3.4507008269429198 8.0548744201660174 1.962507367134094 17.588617328554392
leaf_count=21 27 17 12 21 53 11 98
internal_value=0.000262265 0.0233571 0.0540119 -0.00543775 -0.00994995 0.0185064 -0.0166621
internal_weight=42.5351 7.80672 4.64411 34.7284 31.2777 5.6342 25.6435
internal_count=260 56 39 204 183 32 151
is_linear=0
shrinkage=0.08


Tree=52
num_leaves=6
num_cat=0
split_feature=4 2 3 0 2
split_gain=0.845403 0.881052 1.18951 1.71195 0.710136
threshold=1.5400000000000003 31.045500000000004 9.5000000000000018 143.44500000000002 17.179000000000006
decision_type=2 2 2 2 2
left_child=-1 2 4 -4 -2
right_child=1 -3 3 -5 -6
leaf_value=-0.044538218557745146 0.002966870305507326 0.042625176583486024 -0.062457345446802086 -0.0019435299163972726 0.042191387547814402
leaf_weight=1.5272587165236462 6.8720200657844526 2.3241080287843934 2.4150955453515079 24.740649677813053 4.4093340784311295
leaf_count=11 44 15 16 146 28
internal_value=0.000401681 0.00311169 -0.000297764 -0.00935246 0.0204849
internal_weight=42.2885 40.7612 38.4371 27.1557 11.2814
internal_count=260 249 234 162 72
is_linear=0
shrinkage=0.08


Tree=53
num_leaves=10
num_cat=0
split_feature=0 3 5 1 5 3 0 5 5
split_gain=0.834027 1.27703 1.2 1.8461 2.06751 1.44478 1.37633 0.36994 0.159537
threshold=8047.4850000000015 26.500000000000004 0.83185000000000009 1.0000000180025095e-35 0.74140000000000017 14.500000000000002 2210.5250000000005 0.92925000000000013 0.59390000000000009
decision_type=2 2 2 2 2 2 2 2 2
left_child=2 8 3 6 -5 -4 -1 -7 -2
right_child=1 -3 5 4 -6 7 -8 -9 -10
leaf_value=-0.07155045166298446 0.063292073399435322 -0.021040689293466041 0.0061057413107430151 0.0010264515715150519 0.058903382193714993 -0.075622693922588413 0.0055801441352275058 -0.016326469352034644 0.020179201840397929
leaf_weight=2.2878286316990879 1.7560721710324276 1.9826302565634248 3.6450747475028029 19.540332911536101 3.962874397635459 2.2934394329786301 2.4500049352645874 1.7124156430363653 2.4736553356051445
leaf_count=15 15 13 21 118 22 14 14 11 17
internal_value=0.000329778 0.0252035 -0.00454195 0.00333161 0.0127907 -0.0306304 -0.0376438 -0.0586 0.0467583
internal_weight=42.1043 6.21236 35.892 28.241 23.5032 7.65093 4.73783 4.00586 4.22973
internal_count=260 45 215 169 140 46 29 25 32
is_linear=0
shrinkage=0.08


Tree=54
num_leaves=12
num_cat=0
split_feature=1 6 3 0 0 3 3 6 0 6 4
split_gain=0.814616 1.05885 1.20966 0.742655 0.673025 0.712516 0.644754 1.0257 0.570231 0.525895 0.335655
threshold=3.5000000000000004 60.507000000000005 9.5000000000000018 5673.1450000000013 6669.0250000000005 13.500000000000002 9.5000000000000018 38.421500000000009 2405.8900000000008 76.085000000000022 21.049500000000005
decision_type=2 2 2 2 2 2 2 2 2 2 2
left_child=1 2 -1 6 5 -3 10 -8 -4 -5 -2
right_child=3 4 8 9 -6 -7 7 -9 -10 -11 -12
leaf_value=0.012917151851768371 0.041929230037787715 -0.03099431223632098 -0.062147209485433383 0.063211858096644633 0.033295027893509903 0.0095285147992139347 0.024435282815022785 -0.028893415263283644 -0.01732591056016651 0.0023493152864731796 0.0026792805943992889
leaf_weight=3.3287610560655621 2.1801754310727137 3.1399768218398076 3.3945134580135328 1.7960442677140229 3.2538316696882239 7.5200698599219322 2.7447129040956497 5.2309238165616989 5.0182228460907936 1.4645378384739158 2.7444727495312691
leaf_count=18 15 19 26 17 23 42 14 30 26 14 16
internal_value=0.000243249 -0.00851473 -0.0252296 0.0138325 0.00633633 -0.00404219 0.00394562 -0.00986332 -0.0400923 0.0428423 0.0241997
internal_weight=41.8162 25.6554 11.7415 16.1609 13.9139 10.66 12.9003 7.97564 8.41274 3.26058 4.92465
internal_count=260 154 70 106 84 61 75 44 52 31 31
is_linear=0
shrinkage=0.08


Tree=55
num_leaves=11
num_cat=0
split_feature=5 5 6 5 6 1 6 3 5 4
split_gain=0.838701 1.18153 1.17544 2.18864 1.96381 1.05643 1.0045 0.908397 0.897363 0.618033
threshold=0.51590000000000014 0.61555000000000015 84.219500000000011 0.83185000000000009 35.487500000000004 1.0000000180025095e-35 59.466000000000001 18.500000000000004 0.37335000000000007 14.988000000000001
decision_type=2 2 2 2 2 2 2 2 2 2
left_child=5 7 4 -4 -3 -1 8 -2 -7 -8
right_child=1 2 3 -5 -6 6 9 -9 -10 -11
leaf_value=-0.022939935635685218 -0.0060089899287674034 0.018905082384831656 0.059388634168934702 -0.014573069790912281 -0.037895793730556647 -0.02902288626597737 0.0099665905365336777 -0.066675458795069115 0.029530293520038022 0.065029628513475352
leaf_weight=2.662837713956832 3.4281376581639078 6.2457740716636199 4.0899829864501935 4.5226808711886406 7.6514663249254227 2.4804203398525697 2.4510524049401283 2.3272672593593597 2.2303585633635521 3.4042143896222115
leaf_count=16 23 36 23 28 48 13 17 13 16 27
internal_value=0.000320815 -0.0074328 0.00131572 0.0230742 -0.0128126 0.0162455 0.0272506 -0.0367788 -0.000983825 0.0467961
internal_weight=41.4942 28.2653 22.5099 8.61266 13.8972 13.2289 10.566 5.7554 4.71078 5.85527
internal_count=260 171 135 51 84 89 73 36 29 44
is_linear=0
shrinkage=0.08


Tree=56
num_leaves=7
num_cat=0
split_feature=1 3 3 6 6 1
split_gain=0.806567 1.90177 0.810717 0.710119 1.19613 0.841797
threshold=4.5000000000000009 23.500000000000004 31.500000000000004 21.518000000000004 35.487500000000004 2.5000000000000004
decision_type=2 2 2 2 2 2
left_child=2 -2 3 5 -5 -1
right_child=1 -3 -4 4 -6 -7
leaf_value=-0.062192990937457941 0.051992479823062425 -0.021773654183651146 0.02738825513909663 0.034518467599100398 -0.010758891693636641 -0.00048311705717965508
leaf_weight=2.2027926519513157 4.3646801859140387 3.0870942771434784 3.3795630894601336 3.4586504101753262 22.213263887912035 2.562403492629528
leaf_count=15 39 17 21 22 133 13
internal_value=0.000310518 0.0224724 -0.00507823 -0.00943966 -0.00359341 -0.0348492
internal_weight=41.2684 7.45177 33.8167 30.4371 25.6719 4.7652
internal_count=260 56 204 183 155 28
is_linear=0
shrinkage=0.08


Tree=57
num_leaves=6
num_cat=0
split_feature=4 4 0 6 0
split_gain=0.796647 0.768426 1.31499 1.29329 0.837813
threshold=1.5400000000000003 4.9720000000000004 2405.8900000000008 88.281500000000008 4661.8500000000013
decision_type=2 2 2 2 2
left_child=-1 -2 3 -3 -4
right_child=1 2 4 -5 -6
leaf_value=-0.043812100395841817 0.036658266141393947 -0.027673491284178613 0.039163751062369648 0.015963393726765217 0.0027565396781910646
leaf_weight=1.4682005494832981 2.9219029918313018 13.434626970440151 5.0407425910234478 5.4499605521559706 12.761642482131718
leaf_count=11 18 84 29 31 87
internal_value=0.000324464 0.00299909 -0.000583242 -0.0149107 0.0145999
internal_weight=41.0771 39.6089 36.687 18.8846 17.8024
internal_count=260 249 231 115 116
is_linear=0
shrinkage=0.08


Tree=58
num_leaves=11
num_cat=0
split_feature=5 5 2 0 2 4 3 0 2 6
split_gain=0.758608 1.07571 1.01665 2.0621 0.935714 0.868026 0.715053 0.782798 0.966849 0.0437258
threshold=0.51590000000000014 0.61555000000000015 17.179000000000006 2012.5800000000002 18.744500000000006 18.789000000000005 10.500000000000002 713.63000000000022 21.353500000000004 70.672500000000014
decision_type=2 2 2 2 2 2 2 2 2 2
left_child=6 4 3 -3 -2 -4 9 -8 -9 -1
right_child=1 2 5 -5 -6 -7 7 8 -10 -11
leaf_value=0.018773149618487112 -0.0046283509720232499 -0.049665695301093632 -0.013131675357425819 0.013642208546159331 -0.066052919816032951 0.032339268900791356 -0.030017707148928794 0.031877540007887499 -0.023937602313772396 0.056199011194056833
leaf_weight=1.9600620679557317 3.422122702002528 4.8291520327329653 3.2981015332043153 6.8275203481316566 2.2509550079703331 7.3406671062111855 2.2963376939296705 5.5243829526007175 2.0088172014802694 1.2483012806624172
leaf_count=12 23 32 22 38 13 43 15 36 14 12
internal_value=0.000340288 -0.0070641 0.00131208 -0.014437 -0.0352464 0.0183258 0.0155957 0.0034174 0.0159328 0.0432287
internal_weight=41.0064 27.9685 22.2954 11.6567 5.67308 10.6388 13.0379 9.82954 7.5332 3.20836
internal_count=260 171 135 70 36 65 89 65 50 24
is_linear=0
shrinkage=0.08


Tree=59
num_leaves=6
num_cat=0
split_feature=4 2 3 0 4
split_gain=0.735579 0.765198 0.982106 1.32938 0.72168
threshold=1.5400000000000003 31.045500000000004 9.5000000000000018 143.44500000000002 28.359500000000004
decision_type=2 2 2 2 2
left_child=-1 2 4 -4 -2
right_child=1 -3 3 -5 -6
leaf_value=-0.04240684508535817 0.036673922965123812 0.040053251997033322 -0.057326236291591323 -0.0022577628831226856 -0.0024853956926372358
leaf_weight=1.4407275207340706 5.5173564534634334 2.2484152652323237 2.1909755617380169 24.031071215867996 5.3788705691695213
leaf_count=11 39 15 16 146 33
internal_value=0.000247043 0.00281994 -0.000427035 -0.00879584 0.0187591
internal_weight=40.8074 39.3667 37.1183 26.222 10.8962
internal_count=260 249 234 162 72
is_linear=0
shrinkage=0.08


Tree=60
num_leaves=12
num_cat=0
split_feature=5 5 6 5 6 2 2 2 5 4 5
split_gain=0.708515 0.969735 0.966566 1.95547 1.79353 0.846621 0.723103 1.32385 0.904582 0.594553 0.850876
threshold=0.51590000000000014 0.61555000000000015 84.219500000000011 0.83185000000000009 69.198000000000022 18.744500000000006 12.055500000000002 7.4595000000000011 0.42895000000000005 29.571500000000004 0.41925000000000007
decision_type=2 2 2 2 2 2 2 2 2 2 2
left_child=6 5 4 -4 -3 -2 7 8 -1 10 -8
right_child=1 2 3 -5 -6 -7 9 -9 -10 -11 -12
leaf_value=-0.01580613127435598 -0.0045823102678558452 0.0019979763058703397 0.055390202528902713 -0.014794057168326076 -0.067668809268461805 -0.063147208068131608 0.031644823276056562 -0.051092858407232086 0.049050047740373678 0.052585510821942093 -0.027163861385444497
leaf_weight=1.9521510377526268 3.4166314546018866 11.635237604379656 4.0328725725412351 4.4666454419493675 1.9515253603458393 2.2399737760424614 2.7464997917413712 1.6615636199712751 1.8512137457728384 2.9526211898773909 1.7618949282914398
leaf_count=11 23 72 23 28 12 13 17 11 13 21 16
internal_value=0.00017208 -0.00700754 0.00101431 0.0208324 -0.0119616 -0.033776 0.0149783 -0.00661984 0.019401 0.0297109 0.00790314
internal_weight=40.6688 27.7429 22.0863 8.49952 13.5868 5.65661 12.9259 5.46493 3.80336 7.46102 4.50839
internal_count=260 171 135 51 84 36 89 35 24 54 33
is_linear=0
shrinkage=0.08


Tree=61
num_leaves=8
num_cat=0
split_feature=1 3 5 6 5 6 6
split_gain=0.739586 1.72697 0.939995 0.708331 1.34423 1.31194 1.01638
threshold=4.5000000000000009 23.500000000000004 0.72440000000000004 21.518000000000004 0.74140000000000017 35.487500000000004 43.551500000000011
decision_type=2 2 2 2 2 2 2
left_child=3 2 -2 4 -1 -5 -7
right_child=1 -3 -4 5 -6 6 -8
leaf_value=-0.058760712539972504 0.071160326207904259 -0.020673650363091257 -0.0034413513063014374 0.039362760083656717 0.012506064625765215 -0.048341216356232453 -0.00059841659070271737
leaf_weight=2.9051981195807448 2.782475382089614 3.03620246052742 1.3891653753817079 3.6600340828299549 2.4743285924196243 2.2850470282137421 21.93821257352829
leaf_count=19 27 17 12 23 13 15 134
internal_value=5.73217e-05 0.0216253 0.050456 -0.00511108 -0.0291592 0.000377451 -0.00684011
internal_weight=40.4707 7.20784 4.17164 33.2628 5.37953 27.8833 24.2233
internal_count=260 56 39 204 32 172 149
is_linear=0
shrinkage=0.08


Tree=62
num_leaves=9
num_cat=0
split_feature=0 3 4 1 6 3 3 6
split_gain=0.734851 1.12884 1.1191 1.36016 1.15623 1.06759 0.875171 0.510812
threshold=8047.4850000000015 26.500000000000004 49.025000000000006 2.5000000000000004 47.143000000000008 5.5000000000000009 22.500000000000004 48.347500000000004
decision_type=2 2 2 2 2 2 2 2
left_child=2 7 3 4 -1 -5 -4 -2
right_child=1 -3 6 5 -6 -7 -8 -9
leaf_value=-0.060877367585322882 0.0077902975871994573 -0.020072348011232598 0.042620435033106335 -0.031326460452148382 -0.010135918292628356 0.014361552828230949 -0.012011941486927255 0.065250497878387922
leaf_weight=4.0941896401345748 1.9129793494939797 1.9072583615779874 4.0193838104605666 3.3050718531012562 7.7605119757354259 12.764244079589842 2.4247314557433128 2.0755761228501797
leaf_count=31 13 13 21 22 45 82 14 19
internal_value=4.13814e-05 0.0239305 -0.00461751 -0.0116202 -0.0310327 0.00367989 0.0232117 0.0447777
internal_weight=40.2639 5.89581 34.3681 27.924 11.8547 16.0693 6.44412 3.98856
internal_count=260 45 215 180 76 104 35 32
is_linear=0
shrinkage=0.08


Tree=63
num_leaves=6
num_cat=0
split_feature=4 2 6 6 4
split_gain=0.680788 0.700077 0.728071 1.7295 1.502
threshold=1.5400000000000003 31.045500000000004 21.518000000000004 35.487500000000004 25.187500000000004
decision_type=2 2 2 2 2
left_child=-1 2 4 -4 -2
right_child=1 -3 3 -5 -6
leaf_value=-0.041430346230349649 0.015927245280380042 0.038540081791044838 0.048128188243089481 -0.0033804259017336021 -0.056179472096386247
leaf_weight=1.3907160572707642 2.7823473103344432 2.1782077383249989 3.9214972890913513 26.719459142535925 3.0170932486653328
leaf_count=11 20 15 25 173 16
internal_value=2.8373e-05 0.00252941 -0.000594989 0.00452449 -0.0243308
internal_weight=40.0093 38.6186 36.4404 30.641 5.79944
internal_count=260 249 234 198 36
is_linear=0
shrinkage=0.08


Tree=64
num_leaves=9
num_cat=0
split_feature=0 3 4 3 3 4 3 6
split_gain=0.671774 1.03494 0.956558 0.884194 1.7736 1.01962 0.757272 0.485465
threshold=8047.4850000000015 26.500000000000004 49.025000000000006 9.5000000000000018 27.500000000000004 34.154000000000003 22.500000000000004 48.347500000000004
decision_type=2 2 2 2 2 2 2 2
left_child=2 7 3 5 -5 -1 -4 -2
right_child=1 -3 6 4 -6 -7 -8 -9
leaf_value=0.026282707458149212 0.0073681010848828171 -0.018926114767703024 0.039392211210226062 -0.036734070534752881 0.013100423840491246 -0.025588653291200247 -0.011490272174633815 0.063731453081623965
leaf_weight=6.1082275267690438 1.8921951353549951 1.9143085554242132 4.0120913907885543 12.603561609983446 6.251104272902011 2.7479166910052299 2.4036862924695015 1.9891220070421693
leaf_count=43 13 13 21 84 37 16 14 19
internal_value=2.88423e-05 0.0230523 -0.00442611 -0.0109298 -0.0203842 0.00922463 0.0213502 0.0433922
internal_weight=39.9222 5.79563 34.1266 27.7108 18.8547 8.85614 6.41578 3.88132
internal_count=260 45 215 180 121 59 35 32
is_linear=0
shrinkage=0.08


Tree=65
num_leaves=13
num_cat=0
split_feature=1 2 3 4 0 0 6 2 6 0 3 3
split_gain=0.694316 0.831515 1.27145 1.02054 1.25963 0.605846 0.545719 1.94586 0.515497 0.402661 0.275841 0.206328
threshold=3.5000000000000004 14.543000000000001 16.500000000000004 39.83400000000001 1390.2950000000003 5673.1450000000013 107.724 17.179000000000006 76.085000000000022 3916.7750000000005 7.5000000000000009 21.500000000000004
decision_type=2 2 2 2 2 2 2 2 2 2 2 2
left_child=1 2 10 4 -3 6 7 -2 -7 -5 -1 -4
right_child=5 3 11 9 -6 8 -8 -9 -10 -11 -12 -13
leaf_value=-0.010967559864544929 -0.012747896100911016 -0.01032438449811484 -0.016830110804374406 0.0022388668730454466 0.04304672559155856 0.060570778201551587 -0.026904496013493935 0.054292781716037797 7.7463691603452161e-05 -0.039657156009799008 0.025026139781473035 -0.056750346766401762
leaf_weight=1.6570071950554868 7.0035822391509992 4.7669668570160848 2.4201017394661903 2.3028551414608947 4.9953464269638062 1.6556933391839259 1.982932075858115 3.3032318167388439 1.3687966112047432 2.6117457821965218 2.0886221081018448 3.5800855234265327
leaf_count=12 40 29 15 13 33 17 12 23 14 13 15 24
internal_value=0.000141597 -0.00812753 -0.0250634 0.00399969 0.0184477 0.0130188 0.00386398 0.0116395 0.0400152 -0.0229664 0.0101473 -0.0453534
internal_weight=39.737 24.4227 9.74582 14.6769 9.76231 15.3142 12.2897 10.3068 3.02449 4.9146 3.74563 6.00019
internal_count=260 154 66 88 62 106 75 63 31 26 27 39
is_linear=0
shrinkage=0.08


Tree=66
num_leaves=10
num_cat=0
split_feature=5 1 5 4 4 4 2 5 4
split_gain=0.692673 0.908083 0.854243 0.803571 1.54229 0.917965 0.774862 0.659088 1.19814
threshold=0.51590000000000014 1.0000000180025095e-35 0.61555000000000015 19.258000000000006 26.690500000000004 14.988000000000001 18.744500000000006 0.34370000000000006 14.988000000000001
decision_type=2 2 2 2 2 2 2 2 2
left_child=1 -1 6 5 -5 -4 -2 -3 -9
right_child=2 7 3 4 -6 -7 -8 8 -10
leaf_value=-0.021967593394567993 -0.0042351915486240231 -0.0060383342697544152 -0.00024997139545427283 0.051049201574296522 -0.0044180840817632716 -0.057155505518017673 -0.060866031523219573 -0.0028602599553105026 0.060133593949891713
leaf_weight=2.5166527144610873 3.344365373253825 2.7819822840392572 5.2787701394408968 3.4551759213209143 10.977712545543907 1.7713897079229353 2.1625713407993317 2.9286224991083145 4.2232837043702602
leaf_count=16 23 17 37 20 67 11 13 22 34
internal_value=0.000158782 0.0150751 -0.00701492 0.000646929 0.011308 -0.0198716 -0.0324104 0.0256104 0.0371518
internal_weight=39.4405 12.4505 26.99 21.483 14.4329 7.05016 5.50694 9.93389 7.15191
internal_count=260 89 171 135 87 48 36 73 56
is_linear=0
shrinkage=0.08


Tree=67
num_leaves=6
num_cat=0
split_feature=4 4 1 4 3
split_gain=0.647081 0.620768 1.09685 1.18242 0.997685
threshold=1.5400000000000003 4.9720000000000004 4.5000000000000009 11.733500000000001 25.500000000000004
decision_type=2 2 2 2 2
left_child=-1 -2 3 -3 -4
right_child=1 2 4 -5 -6
leaf_value=-0.040828085723693106 0.033163876388882178 -0.049687167377817851 0.049392313375125306 -0.001484540336505451 -0.0094425692129020428
leaf_weight=1.3375196494162072 2.8141786456108084 2.7310967370867756 3.6744718793779603 26.176062200218439 2.5920111499726772
leaf_count=11 18 20 36 160 15
internal_value=5.67899e-05 0.00250659 -0.000795232 -0.00754774 0.027106
internal_weight=39.3253 37.9878 35.1736 28.9072 6.26648
internal_count=260 249 231 180 51
is_linear=0
shrinkage=0.08


Tree=68
num_leaves=8
num_cat=0
split_feature=2 2 3 0 2 4 6
split_gain=0.621469 1.95813 3.18911 1.43334 1.20241 0.991234 0.579417
threshold=5.9930000000000012 4.6220000000000008 22.500000000000004 9669.7700000000023 8.2060000000000013 6.7025000000000015 62.333000000000006
decision_type=2 2 2 2 2 2 2
left_child=1 2 6 4 -2 -6 -1
right_child=3 -3 -4 -5 5 -7 -8
leaf_value=0.068037131330780501 0.045776048035377923 -0.068440643435518672 -0.050345009331739993 0.060109678604587657 -0.038460281468790561 0.0016899468672482796 0.0085206128364531085
leaf_weight=2.1368320286273939 2.2999606505036416 2.2510616704821587 2.8109120875597 1.8145941849797953 3.7729722373187569 22.002635224722326 2.0618109852075577
leaf_count=12 15 15 16 18 27 144 13
internal_value=1.72173e-05 -0.0170414 0.00594904 0.00568294 0.000218827 -0.00540405 0.0460716
internal_weight=39.1508 9.26062 7.00956 29.8902 28.0756 25.7756 4.19864
internal_count=260 56 41 204 186 171 25
is_linear=0
shrinkage=0.08


Tree=69
num_leaves=10
num_cat=0
split_feature=5 6 6 3 6 1 6 5 5
split_gain=0.612541 0.877901 1.70819 2.51778 1.58824 0.8149 0.80449 0.773019 0.489413
threshold=0.51590000000000014 108.03450000000001 88.281500000000008 25.500000000000004 69.198000000000022 1.0000000180025095e-35 59.466000000000001 0.37335000000000007 0.40490000000000004
decision_type=2 2 2 2 2 2 2 2 2
left_child=5 2 4 -4 -2 -1 7 -7 -8
right_child=1 -3 3 -5 -6 6 8 -9 -10
leaf_value=-0.020957795476227288 0.0001913237682929718 -0.043279473899689593 0.069972900733972831 -0.021820105530785824 -0.052453737593831172 -0.027558150040913706 0.06767393099664909 0.027911232228841565 0.016087882295053309
leaf_weight=2.4997474625706664 13.897225042805085 2.6487096026539794 3.4482160657644263 2.7022988721728325 3.9790247529745093 2.39322232455015 1.9434654787182806 2.0582838803529739 3.4053137255832553
leaf_count=16 91 16 25 15 24 13 14 16 30
internal_value=7.02463e-05 -0.00671217 -0.00111274 0.0322312 -0.0136848 0.0141782 0.024251 -0.00149508 0.0425386
internal_weight=38.9755 26.6755 24.0268 6.15051 17.8762 12.3 9.80029 4.45151 5.34878
internal_count=260 171 155 40 115 89 73 29 44
is_linear=0
shrinkage=0.08


Tree=70
num_leaves=12
num_cat=0
split_feature=1 2 3 5 4 0 5 0 0 0 3
split_gain=0.610784 0.825845 1.08072 0.907507 0.90049 1.08896 0.716552 0.767753 1.20395 0.331729 0.242501
threshold=3.5000000000000004 14.543000000000001 16.500000000000004 0.39190000000000008 39.83400000000001 3055.7500000000005 0.90700000000000014 5054.4350000000004 1169.1250000000002 3916.7750000000005 7.5000000000000009
decision_type=2 2 2 2 2 2 2 2 2 2 2
left_child=1 2 10 -4 5 -3 7 8 -2 -6 -1
right_child=6 4 3 -5 9 -7 -8 -9 -10 -11 -12
leaf_value=-0.011383260887659468 0.040513306020447025 -0.0041883479344622153 0.0040862789363855165 -0.060749579850277444 0.0020531645729539617 0.046961667941191172 -0.019612171749131057 0.052457532249674074 -0.013062058042121204 -0.036138265406075669 0.022246467017245666
leaf_weight=1.6484530493617078 3.3433513082563859 5.8237814977765066 1.7301344983279703 4.1030791848897934 2.2777854129672042 3.6906285434961319 2.7605128511786452 2.5740517657250157 6.1641915664076805 2.587345652282238 2.0595377050340176
leaf_count=12 22 36 11 28 13 26 18 29 37 13 15
internal_value=9.98255e-05 -0.00771041 -0.0247541 -0.0437355 0.00447274 0.0182321 0.0123796 0.0206298 0.0078405 -0.0209562 0.00805351
internal_weight=38.7629 23.9207 9.5412 5.83321 14.3795 9.51441 14.8421 12.0816 9.50754 4.86513 3.70799
internal_count=260 154 66 39 88 62 106 88 59 26 27
is_linear=0
shrinkage=0.08


Tree=71
num_leaves=11
num_cat=0
split_feature=5 5 6 5 6 3 3 2 0 2
split_gain=0.556814 0.848753 0.933309 1.61259 1.38198 0.628218 0.587726 0.631698 0.598941 0.937817
threshold=0.51590000000000014 0.61555000000000015 84.219500000000011 0.83185000000000009 35.487500000000004 18.500000000000004 10.500000000000002 17.179000000000006 713.63000000000022 21.353500000000004
decision_type=2 2 2 2 2 2 2 2 2 2
left_child=6 5 4 -4 -3 -2 7 -1 -8 -10
right_child=1 2 3 -5 -6 -7 8 -9 9 -11
leaf_value=-0.00081075823393463985 -0.0057586606662006204 0.015798284130578821 0.053028444541086746 -0.012332568436090889 -0.033438234699075649 -0.058079945386227676 -0.027694459971708496 0.064525270583425845 0.030000120806894334 -0.025988566118347732
leaf_weight=1.5034689046442502 3.2867853287607458 5.8145206291228551 3.8451954461634141 4.2129640877246857 7.1022567301988602 2.0767449140548706 2.1173180975019914 1.4511794857680795 5.1625674907118082 1.890078132972121
leaf_count=12 23 36 23 28 48 13 15 12 36 14
internal_value=0.000140963 -0.00636491 0.00133682 0.0212674 -0.0117317 -0.0319608 0.0136819 0.039481 0.00230447 0.0136314
internal_weight=38.4631 26.3385 20.9749 8.05816 12.9168 5.36353 12.1246 2.95465 9.16996 7.05265
internal_count=260 171 135 51 84 36 89 24 65 50
is_linear=0
shrinkage=0.08


Tree=72
num_leaves=11
num_cat=0
split_feature=1 2 3 2 3 5 5 6 6 3
split_gain=0.578937 0.743046 1.00764 0.825286 1.01006 0.799892 0.614875 1.00418 1.1239 0.213712
threshold=3.5000000000000004 14.543000000000001 16.500000000000004 16.796500000000005 25.500000000000004 0.39190000000000008 0.90700000000000014 107.724 20.412500000000005 7.5000000000000009
decision_type=2 2 2 2 2 2 2 2 2 2
left_child=1 2 9 -3 -5 -4 7 8 -2 -1
right_child=6 3 5 4 -6 -7 -8 -9 -10 -11
leaf_value=-0.010561659965235639 -0.01518305859433452 0.041503903455020058 0.0028533479322922313 0.0090712660132599363 -0.038175367908656298 -0.058757471234038294 -0.017618311961314224 -0.025332768756220807 0.042779781077398112 0.021069717469243656
leaf_weight=1.6385108716785928 2.2595123015344125 2.0359313711524001 1.7285427488386629 9.127641446888445 3.0745651945471755 3.96843221783638 2.7430712096393099 1.8263822235167015 7.8199731092900038 2.0611274391412735
leaf_count=12 15 12 11 56 20 28 18 13 60 15
internal_value=0.000129544 -0.00751749 -0.0238075 0.0040901 -0.00482325 -0.0424292 0.0121593 0.0198535 0.0295887 0.00779422
internal_weight=38.2837 23.6348 9.39661 14.2381 12.2022 5.69697 14.6489 11.9059 10.0795 3.69964
internal_count=260 154 66 88 76 39 106 88 75 27
is_linear=0
shrinkage=0.08


Tree=73
num_leaves=6
num_cat=0
split_feature=4 2 6 6 4
split_gain=0.5833 0.595899 0.681544 1.4422 1.18664
threshold=1.5400000000000003 31.045500000000004 21.518000000000004 35.487500000000004 25.187500000000004
decision_type=2 2 2 2 2
left_child=-1 2 4 -4 -2
right_child=1 -3 3 -5 -6
leaf_value=-0.039463945154614585 0.012937163093409774 0.036193883114759386 0.045323105854857035 -0.0028815779710830063 -0.052508854852515018
leaf_weight=1.2598576284945 2.6677925214171401 2.0648442963138214 3.6849261969327953 25.478701144456863 2.8957908973097801
leaf_count=11 20 15 25 173 16
internal_value=1.71053e-05 0.00237751 -0.000589963 0.0045099 -0.023937
internal_weight=38.0519 36.7921 34.7272 29.1636 5.56358
internal_count=260 249 234 198 36
is_linear=0
shrinkage=0.08


Tree=74
num_leaves=9
num_cat=0
split_feature=0 4 1 1 5 6 3 6
split_gain=0.577687 0.843353 1.1665 0.971277 1.20502 1.12283 0.760483 0.429243
threshold=8047.4850000000015 49.025000000000006 1.5000000000000002 2.5000000000000004 0.58890000000000009 47.143000000000008 26.500000000000004 48.347500000000004
decision_type=2 2 2 2 2 2 2 2
left_child=1 3 -3 5 -5 -1 7 -2
right_child=6 2 -4 4 -6 -7 -8 -9
leaf_value=-0.057489814322035739 0.0057390602436355551 -0.022589661547056609 0.041633620326301232 0.02901949593475929 -0.014304553454717884 -0.0067997328723381992 -0.01528334567381656 0.059993436267420597
leaf_weight=3.7958054877817649 1.7578932307660573 2.0079200603067866 4.1518868654966354 5.779861479997634 9.4566909465938789 7.4723100066184998 1.7657562177628277 1.777176880277693
leaf_count=31 13 12 23 43 61 45 13 19
internal_value=1.44835e-05 -0.00414698 0.0204676 -0.0104037 0.00290517 -0.0271696 0.0222463 0.0402287
internal_weight=37.9653 32.6645 6.15981 26.5047 15.2366 11.2681 5.30083 3.53507
internal_count=260 215 35 180 104 76 45 32
is_linear=0
shrinkage=0.08


Tree=75
num_leaves=6
num_cat=0
split_feature=4 4 0 2 2
split_gain=0.542775 0.815464 1.15268 1.4681 0.717403
threshold=2.7230000000000003 4.9720000000000004 2405.8900000000008 17.179000000000006 5.9930000000000012
decision_type=2 2 2 2 2
left_child=-1 -2 3 -3 -4
right_child=1 2 4 -5 -6
leaf_value=-0.032747167663853709 0.042956283356926729 -0.03328102656253569 -0.010334533966625245 0.011840327410327985 0.024196822160881315
leaf_weight=1.9858945906162251 1.9639195948839177 10.059328388422729 4.8787097670137909 7.2253817655146113 11.562977812252937
leaf_count=17 12 68 30 47 86
internal_value=5.4173e-05 0.0027221 -0.000790297 -0.0148033 0.0139453
internal_weight=37.6762 35.6903 33.7264 17.2847 16.4417
internal_count=260 243 231 115 116
is_linear=0
shrinkage=0.08


Tree=76
num_leaves=7
num_cat=0
split_feature=0 4 4 5 3 6
split_gain=0.488092 0.798946 0.786491 0.893766 0.700699 0.431148
threshold=8047.4850000000015 2.7230000000000003 4.9720000000000004 0.83185000000000009 26.500000000000004 48.347500000000004
decision_type=2 2 2 2 2 2
left_child=1 -1 -3 -4 5 -2
right_child=4 2 3 -5 -6 -7
leaf_value=-0.047354218917970314 0.0044973340415073856 0.039639472435104899 0.003341887151148202 -0.029363202454871375 -0.015148051033346906 0.058483426741126388
leaf_weight=1.4914544709026802 1.7392600625753396 1.8866322860121751 23.042307091876868 5.9025552272796622 1.7545201815664766 1.6911758789792655
leaf_count=13 13 11 152 39 13 19
internal_value=5.43315e-05 -0.0037779 -0.000248492 -0.00408532 0.0206926 0.0383052
internal_weight=37.5079 32.3229 30.8315 28.9449 5.18496 3.43044
internal_count=260 215 202 191 45 32
is_linear=0
shrinkage=0.08


Tree=77
num_leaves=11
num_cat=0
split_feature=1 6 5 2 3 5 4 3 3 5
split_gain=0.513477 0.774632 1.0535 1.18479 0.732764 0.637785 0.51563 0.753927 1.95585 0.205498
threshold=3.5000000000000004 60.507000000000005 0.44635000000000008 21.353500000000004 9.5000000000000018 0.74140000000000017 40.288000000000004 5.5000000000000009 11.500000000000002 0.69870000000000021
decision_type=2 2 2 2 2 2 2 2 2 2
left_child=1 4 -3 -4 -1 -6 7 -2 -9 -8
right_child=6 2 3 -5 5 -7 9 8 -10 -11
leaf_value=0.0088020222426210999 -0.032840932181685399 0.041086449015580583 -0.027956929490136572 0.024058649800213362 -0.049328731607726634 -0.00093124971989684416 0.0083926013414269938 0.066798123953232202 -0.010726461037232449 0.047208589856100894
leaf_weight=3.0241424366831797 2.115493591874837 2.9323652088642111 5.9433607161045057 3.7524515315890312 4.8258789479732513 2.5421279706060886 2.0105909248813982 1.9479794669896344 6.3819356113672256 1.8789157941937444
leaf_count=18 16 20 42 22 35 17 14 18 46 12
internal_value=8.15063e-05 -0.00722187 0.0060015 -0.00745876 -0.0224068 -0.0347373 0.0115161 0.00134742 0.0126193 0.0329637
internal_weight=37.3552 23.0203 12.6282 9.69581 10.3921 7.36801 14.3349 10.4454 8.32992 3.88951
internal_count=260 154 84 64 70 52 106 80 64 26
is_linear=0
shrinkage=0.08


Tree=78
num_leaves=6
num_cat=0
split_feature=4 4 1 4 3
split_gain=0.475112 0.82186 0.803794 1.07242 0.809841
threshold=3.2770000000000006 4.9720000000000004 4.5000000000000009 11.733500000000001 25.500000000000004
decision_type=2 2 2 2 2
left_child=-1 -2 3 -3 -4
right_child=1 2 4 -5 -6
leaf_value=-0.028484237857467832 0.047003327773130689 -0.047827561157607494 0.045416889153497106 -0.00046547713177826972 -0.0088944281663552484
leaf_weight=2.3711498416960231 1.5176014676690091 2.4912465997040298 3.3285046154633156 24.921365708112717 2.4879721626639366
leaf_count=20 9 20 36 160 15
internal_value=0.000231679 0.0029333 -0.000393815 -0.00630155 0.0242887
internal_weight=37.1178 34.7467 33.2291 27.4126 5.81648
internal_count=260 240 231 180 51
is_linear=0
shrinkage=0.08


Tree=79
num_leaves=11
num_cat=0
split_feature=5 5 6 5 6 1 6 5 2 4
split_gain=0.465824 0.84213 0.86361 1.34447 1.19735 0.654042 0.640437 0.774121 0.622963 0.539008
threshold=0.51590000000000014 0.61555000000000015 84.219500000000011 0.83185000000000009 35.487500000000004 1.0000000180025095e-35 59.466000000000001 0.37335000000000007 18.744500000000006 14.988000000000001
decision_type=2 2 2 2 2 2 2 2 2 2
left_child=5 8 4 -4 -3 -1 7 -7 -2 -8
right_child=1 2 3 -5 -6 6 9 -9 -10 -11
leaf_value=-0.019140542796689915 -0.0049819387074164917 0.015005704117044849 0.050618225753477131 -0.010116131753569116 -0.031639016145808954 -0.027562798617756627 0.0045047155363665816 0.028955495517306012 -0.057693959746935308 0.056757415987776554
leaf_weight=2.3858394064009181 3.1238131579011705 5.623131778091194 3.7227808907628051 4.0648018103092909 6.7586657255887985 2.3220633715391141 2.148596528917551 1.9110577069222925 2.0310902185738087 2.882118621841073
leaf_count=16 23 36 23 28 48 13 17 16 13 27
internal_value=0.000230477 -0.00583831 0.00197128 0.0213736 -0.0109172 0.0128416 0.0221407 -0.00139004 -0.0317503 0.038888
internal_weight=36.974 25.3243 20.1694 7.78758 12.3818 11.6497 9.26384 4.23312 5.1549 5.03072
internal_count=260 171 135 51 84 89 73 29 36 44
is_linear=0
shrinkage=0.08


end of trees

feature_importances:
Column_5=137
Column_3=112
Column_2=109
Column_4=98
Column_6=97
Column_0=92
Column_1=77

parameters:
[boosting: gbdt]
[objective: binary]
[metric: binary_logloss]
[tree_learner: serial]
[device_type: cpu]
[data_sample_strategy: bagging]
[data: ]
[valid: ]
[num_iterations: 80]
[learning_rate: 0.08]
[num_leaves: 16]
[num_threads: 10]
[seed: 1337]
[deterministic: 0]
[force_col_wise: 0]
[force_row_wise: 0]
[histogram_pool_size: -1]
[max_depth: 4]
[min_data_in_leaf: 12]
[min_sum_hessian_in_leaf: 0.001]
[bagging_fraction: 0.9]
[pos_bagging_fraction: 1]
[neg_bagging_fraction: 1]
[bagging_freq: 0]
[bagging_seed: 25954]
[bagging_by_query: 0]
[feature_fraction: 0.9]
[feature_fraction_bynode: 1]
[feature_fraction_seed: 29679]
[extra_trees: 0]
[extra_seed: 18955]
[early_stopping_round: 0]
[early_stopping_min_delta: 0]
[first_metric_only: 0]
[max_delta_step: 0]
[lambda_l1: 0]
[lambda_l2: 1]
[linear_lambda: 0]
[min_gain_to_split: 0]
[drop_rate: 0.1]
[max_drop: 50]
[skip_drop: 0.5]
[xgboost_dart_mode: 0]
[uniform_drop: 0]
[drop_seed: 17763]
[top_rate: 0.2]
[other_rate: 0.1]
[min_data_per_group: 100]
[max_cat_threshold: 32]
[cat_l2: 10]
[cat_smooth: 10]
[max_cat_to_onehot: 4]
[top_k: 20]
[monotone_constraints: ]
[monotone_constraints_method: basic]
[monotone_penalty: 0]
[feature_contri: ]
[forcedsplits_filename: ]
[refit_decay_rate: 0.9]
[cegb_tradeoff: 1]
[cegb_penalty_split: 0]
[cegb_penalty_feature_lazy: ]
[cegb_penalty_feature_coupled: ]
[path_smooth: 0]
[interaction_constraints: ]
[verbosity: 1]
[saved_feature_importance_type: 0]
[use_quantized_grad: 0]
[num_grad_quant_bins: 4]
[quant_train_renew_leaf: 0]
[stochastic_rounding: 1]
[linear_tree: 0]
[max_bin: 255]
[max_bin_by_feature: ]
[min_data_in_bin: 3]
[bin_construct_sample_cnt: 200000]
[data_random_seed: 4404]
[is_enable_sparse: 1]
[enable_bundle: 1]
[use_missing: 1]
[zero_as_missing: 0]
[feature_pre_filter: 1]
[pre_partition: 0]
[two_round: 0]
[header: 0]
[label_column: ]
[weight_column: ]
[group_column: ]
[ignore_column: ]
[categorical_feature: ]
[forcedbins_filename: ]
[precise_float_parser: 0]
[parser_config_file: ]
[objective_seed: 4113]
[num_class: 1]
[is_unbalance: 0]
[scale_pos_weight: 1]
[sigmoid: 1]
[boost_from_average: 1]
[reg_sqrt: 0]
[alpha: 0.9]
[fair_c: 1]
[poisson_max_delta_step: 0.7]
[tweedie_variance_power: 1.5]
[lambdarank_truncation_level: 30]
[lambdarank_norm: 1]
[label_gain: ]
[lambdarank_position_bias_regularization: 0]
[eval_at: ]
[multi_error_top_k: 1]
[auc_mu_weights: ]
[num_machines: 1]
[local_listen_port: 12400]
[time_out: 120]
[machine_list_filename: ]
[machines: ]
[gpu_platform_id: -1]
[gpu_device_id: -1]
[gpu_use_dp: 0]
[num_gpu: 1]

end of parameters

pandas_categorical:null
